{"type":"LSTM","options":{"inputSize":24,"inputRange":24,"hiddenLayers":[20,20],"outputSize":24,"decayRate":0.999,"smoothEps":1e-8,"regc":0.000001,"clipval":5,"maxPredictionLength":100,"dataFormatter":{"indexTable":{"1":13,"2":17,"3":11,"4":14,"5":15,"6":18,"9":16,"v":0,"a":1,"l":2,"u":3,"e":4," ":5,"o":6,"f":7,"p":8,"i":9,"s":10,".":12,"(":19,"r":20,"x":21,")":22,"unrecognized":23},"characterTable":{"0":"v","1":"a","2":"l","3":"u","4":"e","5":" ","6":"o","7":"f","8":"p","9":"i","10":"s","11":"3","12":".","13":"1","14":"4","15":"5","16":"9","17":"2","18":"6","19":"(","20":"r","21":"x","22":")","23":null},"values":["value of pi is 3.14159265 (approx.)"],"characters":["v","a","l","u","e"," ","o","f","p","i","s","3",".","1","4","5","9","2","6","(","r","x",")","unrecognized"],"specialIndexes":[23]}},"trainOpts":{"iterations":100,"errorThresh":0.005,"logPeriod":10,"learningRate":0.01,"callbackPeriod":10,"timeout":"Infinity"},"input":{"rows":25,"columns":24,"weights":[0.6524106860160828,-0.5285090208053589,0.1684665083885193,-0.4108732342720032,0.34342917799949646,0.7444664239883423,-0.4701673090457916,-0.3160039782524109,0.31320902705192566,0.5148488283157349,0.3395133912563324,-0.3273332715034485,0.07552200555801392,-0.4806058704853058,-0.4386017322540283,-0.11825347691774368,0.01092869695276022,0.29185158014297485,0.3877096474170685,-0.6295472979545593,0.26052695512771606,0.1635746955871582,0.3656754493713379,0.5039979219436646,0.6088888049125671,-0.5034673810005188,0.3981080949306488,-0.7266397476196289,0.23187190294265747,1.1721571683883667,-0.05300283432006836,-0.603152871131897,0.3610648512840271,0.4360772371292114,0.6594319343566895,-0.8247022032737732,0.5481792688369751,0.6864446401596069,-0.29417774081230164,0.07784634083509445,-0.3686569333076477,0.4384741485118866,0.6194345355033875,-0.3557441532611847,0.1703680157661438,0.6953250765800476,-0.013907303102314472,0.6460676789283752,0.4535021185874939,-0.500840425491333,0.2949794828891754,-0.14511160552501678,0.7259188890457153,0.41239118576049805,-0.4199662506580353,-0.5940082669258118,0.1255207061767578,0.5084768533706665,-0.0438092015683651,-2.0774130821228027,0.36933785676956177,-0.3745028078556061,-0.7367555499076843,-0.2892807722091675,-0.26880377531051636,0.1622755527496338,-0.2537512183189392,-0.4859519302845001,0.6185401082038879,0.2473098486661911,0.9701775908470154,0.1982734203338623,-0.657824695110321,-1.6007803678512573,0.5479332804679871,-1.0436391830444336,-0.7257480025291443,-0.14401006698608398,0.7487574219703674,-1.423904299736023,0.23870109021663666,0.6642105579376221,0.4118787348270416,-1.3249801397323608,1.1419028043746948,0.6131518483161926,0.5559758543968201,-0.7671054005622864,-0.8509681224822998,0.38011434674263,0.18913228809833527,-1.3989248275756836,-0.5233272910118103,1.0573307275772095,-0.023073336109519005,1.0447696447372437,0.19324184954166412,-1.183358907699585,0.4116027057170868,-0.5175577402114868,0.2924232482910156,0.15143531560897827,-0.2294754981994629,-1.3265963792800903,0.3953915536403656,0.7012682557106018,0.529979407787323,-0.6108481884002686,0.6430566906929016,0.8065059185028076,-0.20865528285503387,-0.6497455835342407,-1.3046512603759766,1.052883267402649,0.10523711889982224,-0.999405562877655,0.24382996559143066,0.8926784992218018,0.7210075855255127,0.44464612007141113,0.4548000991344452,0.4068306088447571,-0.22850878536701202,0.3135579228401184,0.7285507917404175,0.5600528717041016,-0.8201090693473816,0.3344743251800537,-0.18396244943141937,-0.2246946543455124,-0.15953758358955383,0.5811550617218018,-0.273410826921463,-0.5251696109771729,-0.4654005765914917,0.06841447204351425,0.22513523697853088,-0.16292566061019897,-0.28938865661621094,0.6105611324310303,0.6240044832229614,-0.7273299694061279,0.45777392387390137,-0.3949147164821625,0.7470409870147705,0.7939956784248352,-0.5212656855583191,0.381600022315979,1.042648434638977,0.6899431943893433,-0.9412294030189514,0.6828799843788147,-0.5068958401679993,-0.6400435566902161,-0.5991703867912292,0.5252206921577454,-0.5178732872009277,-1.019001841545105,-0.7114148736000061,0.508148193359375,0.7267330884933472,-0.907221794128418,-0.7186059355735779,1.035736322402954,0.7213539481163025,-0.8277329802513123,0.7884036302566528,-0.4843677282333374,0.5010286569595337,-0.3988073170185089,0.14416268467903137,-0.3925778865814209,0.7230039238929749,0.44878271222114563,-0.3980162739753723,-0.23492707312107086,0.26907262206077576,0.4048503041267395,0.19793911278247833,-1.7011860609054565,0.11409875005483627,0.11100125312805176,-0.5997819900512695,-0.2682800590991974,-0.08890923112630844,0.15209530293941498,0.061414267867803574,-0.4044172763824463,0.4727764427661896,0.06746943295001984,0.8396346569061279,0.5220791697502136,0.0717170387506485,-0.4862213134765625,0.6554494500160217,-0.6121267080307007,0.26103654503822327,-0.008306528441607952,-0.15326008200645447,-0.7047497034072876,0.6449733972549438,0.49811023473739624,0.6383188366889954,-0.7021001577377319,0.6049469709396362,0.8336212635040283,-0.028961798176169395,-0.7128129005432129,-0.792720377445221,0.6911712884902954,1.4256917238235474,-0.4445755183696747,0.17463774979114532,0.7605020999908447,-0.5098683834075928,0.4270978271961212,0.5218082666397095,0.27046382427215576,0.47488632798194885,-0.2530876398086548,0.3826923072338104,0.41901302337646484,-0.5266164541244507,0.19035901129245758,0.37823522090911865,0.21901489794254303,0.2265644520521164,0.024538101628422737,0.4914392828941345,-0.15129701793193817,-0.41469746828079224,0.13542823493480682,0.13926735520362854,-0.1577993482351303,0.006788228638470173,0.16732023656368256,0.39400604367256165,0.22405603528022766,0.3825441598892212,-0.3520957827568054,0.26754096150398254,-0.08659642934799194,0.24845154583454132,0.18612805008888245,0.5107775330543518,0.16543664038181305,-0.41077664494514465,-0.15971969068050385,0.020727476105093956,-0.03624914214015007,0.007698994129896164,-0.007865197956562042,0.04687272384762764,0.1411086618900299,-0.448042094707489,-0.2722788155078888,-0.20433871448040009,0.2682667374610901,-0.03658321499824524,0.023348666727542877,0.34217754006385803,0.05025281384587288,0.35459813475608826,-0.16153863072395325,-0.14472422003746033,-0.1300024688243866,-0.18087336421012878,0.9155445098876953,0.023563191294670105,-1.021079421043396,0.016567924991250038,-0.21886171400547028,-0.41080787777900696,-0.03922773152589798,0.15503811836242676,0.6424670815467834,-0.22874422371387482,0.5082467198371887,0.13486358523368835,0.1883944422006607,-0.3350347876548767,0.4364563822746277,0.4933931827545166,-0.24546802043914795,-0.10357030481100082,0.3157210052013397,-0.4791938066482544,-0.10970635712146759,0.2709503769874573,-0.317462682723999,0.729046106338501,-0.6526870131492615,0.11918020248413086,0.2927151322364807,-0.2458650916814804,-0.3880271017551422,0.7066948413848877,0.5498222708702087,0.6091707348823547,-0.7801975607872009,0.6641114950180054,0.5499313473701477,-0.1648608148097992,-0.5391508340835571,-0.5847944021224976,0.5214295387268066,0.9199407696723938,-0.4872896671295166,0.10116298496723175,0.6743807196617126,-0.44218817353248596,0.6316463947296143,-0.09126641601324081,1.5120899677276611,-1.1322975158691406,1.135735273361206,-0.5527037382125854,-0.266951322555542,0.20148704946041107,1.2913639545440674,-0.959540605545044,-1.0890867710113525,-0.890130877494812,1.2409638166427612,-1.3409837484359741,-0.9130607843399048,0.45743370056152344,1.1870595216751099,1.1517311334609985,-0.9629384279251099,-0.840006947517395,1.2123061418533325,-0.4309392273426056,-0.9115699529647827,-0.8627570867538452,-1.0528589487075806,0.03605785220861435,0.5648145079612732,-0.4620373547077179,0.4620785713195801,-0.19302663207054138,-0.17052941024303436,0.21522073447704315,0.6439974904060364,-0.38645851612091064,-0.4080576002597809,-0.33622875809669495,0.6311741471290588,-0.8480864763259888,-0.3883052468299866,0.12048892676830292,0.4632502794265747,0.7234543561935425,-0.4870855212211609,-0.25793296098709106,0.30137771368026733,-0.2577766478061676,-0.593252420425415,-0.19402584433555603,-0.42245933413505554,-0.025727352127432823,-0.306529700756073,0.45512986183166504,-0.551311194896698,-0.39885812997817993,-0.10664491355419159,-0.13287457823753357,-0.49499425292015076,0.7389891147613525,0.5114727020263672,0.7133243083953857,-0.9534301161766052,0.45679914951324463,0.8335673809051514,0.23412758111953735,-0.4842160940170288,-0.5716753005981445,0.6455894112586975,1.2861051559448242,-0.7642133235931396,-0.2620791494846344,0.8632653951644897,-0.6240319013595581,0.6674434542655945,0.10249196738004684,0.5386475324630737,-0.6171413064002991,0.7228422164916992,0.20830531418323517,-0.1010454073548317,-0.10800667107105255,0.7384659051895142,-0.7023240327835083,-0.37676265835762024,-0.4352411925792694,0.9606241583824158,-0.7646731734275818,-0.14624007046222687,-0.2528493106365204,0.4876514673233032,0.6598430275917053,-0.7821076512336731,-0.48447880148887634,0.3116813898086548,0.32046276330947876,-0.7465656995773315,0.3111424744129181,-0.6112139821052551,-0.4753853380680084,0.581595242023468,-0.7045456171035767,0.5351907014846802,-0.13664740324020386,-0.4488776922225952,0.2517973482608795,0.6194486618041992,-0.5960696935653687,-0.6247531771659851,-0.6392744183540344,0.9289470911026001,-0.6966095566749573,-0.46759891510009766,0.32980841398239136,0.36958417296409607,0.43636536598205566,-0.5348856449127197,-0.4484683871269226,0.7108415365219116,-0.18193857371807098,-0.9400450587272644,-0.3425155580043793,-0.6549918055534363,0.27150997519493103,-0.2412205934524536,0.295118123292923,-0.3086252510547638,0.3527390658855438,0.3633776009082794,-0.3472474217414856,-0.16385789215564728,0.2495243400335312,0.273636132478714,0.3197531998157501,-0.03147333860397339,0.3134397268295288,-0.4085424244403839,-0.40231621265411377,-0.2723016142845154,-0.30031222105026245,-0.13744907081127167,0.21692781150341034,-0.3611584007740021,0.5396019220352173,0.11604832857847214,0.6247135996818542,0.38883456587791443,0.471036821603775,-0.5515239238739014,0.31910979747772217,-0.6821224689483643,0.5725389719009399,0.38916900753974915,-0.5533648133277893,-0.8923307657241821,0.733373761177063,0.6540236473083496,0.7853919863700867,-0.7909157276153564,0.9806168675422668,0.912482738494873,-0.31327444314956665,-0.9276639223098755,-0.3664565980434418,0.13517707586288452,0.6713812947273254,-0.28319114446640015,0.6019951701164246,0.723152756690979,0.5030049681663513,0.637787938117981,0.21877814829349518,0.24821023643016815,-0.031960174441337585,-0.23132207989692688,-0.16366660594940186,0.6624538898468018,-0.26877331733703613,-0.5802969932556152,-0.0942234918475151,-0.14392532408237457,0.3243822753429413,-0.6410138607025146,0.5048891305923462,1.3344824314117432,0.3342604637145996,-0.33122068643569946,0.05035319924354553,-1.1804115772247314,0.544057309627533,0.3894995152950287,0.21012739837169647,0.7179839611053467,0.3589153289794922,0.227029487490654,1.0936330556869507,0.7911210656166077,-0.28169822692871094,0.21872538328170776,1.5366487503051758,0.6455392837524414,-1.0869251489639282,0.968689501285553,-0.48357853293418884,-0.25755012035369873,-0.287264883518219,0.2928571403026581,-0.31817513704299927,-0.5895681381225586,-0.9443789720535278,0.4040980935096741,0.4724867045879364,-1.1944490671157837,-0.674160361289978,0.9240202307701111,1.07198166847229,-1.0807549953460693,0.534462571144104,-0.2517758309841156,0.5107958912849426,-1.0821120738983154,0.6863300800323486,-0.2516109347343445,1.5554832220077515,0.5364369750022888,-0.7961361408233643,-0.08156861364841461,0.47906494140625,0.4032561480998993,0.18807873129844666,-0.12999530136585236,0.3246130049228668,-0.5539910793304443,-1.2052439451217651,-0.6718306541442871,-0.940727949142456,0.5871513485908508,0.2591879367828369,-0.42607566714286804,0.7076841592788696,0.08641429990530014,0.8624253273010254,0.31587058305740356,-0.8835874199867249,0.3896739184856415,-0.2870391607284546,-0.11465542018413544,-1.1152293682098389,-0.47175702452659607,0.9134005308151245,0.026300964877009392,-0.319967657327652,-0.6127182245254517,0.08232039958238602,-0.10031116753816605,-0.20897753536701202,0.7295759916305542,1.2636805772781372,0.44804495573043823,0.269580215215683,-1.2936407327651978,0.4061310887336731,0.3132101893424988,-1.1544523239135742,0.2718212902545929,-0.9731667637825012,0.23313438892364502,-0.03490233048796654,0.026161810383200645,0.0733143538236618,-0.046590473502874374,-0.016749009490013123,0.03223038092255592,-0.06161241978406906,-0.05290767922997475,0.06167159602046013,-0.0357712022960186,-0.046798352152109146,0.028632190078496933,-0.030101068317890167,0.011695231311023235,0.07224709540605545,0.06680843234062195,0.05481887608766556,-0.07241257280111313,0.07115042954683304,-0.05621204525232315,-0.006402419880032539,-0.06681805104017258,-0.020809102803468704,-0.02746702916920185]},"hiddenLayers":[{"inputMatrix":{"rows":20,"columns":24,"weights":[-0.10716484487056732,-0.5505959391593933,0.5869240760803223,-0.4624749720096588,-0.018587790429592133,0.08054910600185394,0.07395215332508087,-0.5596587657928467,0.5556027889251709,0.46430104970932007,0.5619294047355652,-0.5184739232063293,0.5265149474143982,0.5191080570220947,0.07628513872623444,-0.4627561569213867,-0.60545814037323,-0.025268882513046265,0.5897951722145081,-0.4486807882785797,-0.10553168505430222,0.5521956086158752,0.07794009894132614,0.4734439551830292,0.1381029486656189,-0.9920350909233093,0.550955057144165,-0.6405186653137207,0.14315450191497803,0.06017134711146355,-0.03462633118033409,-0.6852207779884338,0.6315208673477173,0.7355846166610718,0.7056149244308472,-0.7749089002609253,0.6027510762214661,0.5091093182563782,-0.1843075305223465,-0.6729390621185303,-0.6723458766937256,-0.02605324052274227,0.7165706157684326,-0.8784492015838623,0.05036101117730141,0.632056474685669,0.16883157193660736,0.7317246198654175,0.06440722197294235,-0.6174612045288086,0.6338611245155334,-0.6159274578094482,0.07105084508657455,0.5967676043510437,0.0252610482275486,-0.6164857149124146,0.5950326323509216,0.6252010464668274,0.6422618627548218,-0.5396769642829895,0.6528446674346924,0.6454200744628906,-0.0798695906996727,0.024657560512423515,-0.6327081322669983,-0.12424152344465256,0.5444149374961853,-0.5309301614761353,-0.018521862104535103,0.6680277585983276,0.03971269354224205,0.6453869342803955,-0.5499821305274963,-0.34126362204551697,0.12504249811172485,-0.12981347739696503,-0.6218639016151428,0.08890479058027267,0.4775039255619049,-0.13035054504871368,0.3362182080745697,0.42028725147247314,0.25478431582450867,0.15045392513275146,0.21306972205638885,-0.12297692894935608,0.6383665800094604,0.49241510033607483,-0.12184769660234451,0.9008194804191589,0.46630537509918213,-0.5381860136985779,-0.653365433216095,0.2724444568157196,-0.766254186630249,0.06633640080690384,-0.6803769469261169,-0.11013855785131454,0.13230860233306885,-0.5967132449150085,-0.7575920224189758,0.37598341703414917,0.623732328414917,-0.07695090770721436,0.019455866888165474,0.004374534823000431,0.6811989545822144,-0.20555779337882996,0.20079216361045837,1.662095069885254,0.6546246409416199,0.21056295931339264,-0.16141417622566223,0.1306668370962143,0.9307489991188049,-0.21073181927204132,-0.7865840196609497,0.4098818302154541,-0.854347825050354,0.6377127170562744,-0.03170079365372658,0.8138837218284607,-0.5811778903007507,0.8868985772132874,0.040327299386262894,-0.17699098587036133,0.06395944207906723,0.5031183958053589,-0.7122226357460022,-1.0647557973861694,-0.8688926696777344,0.6376466155052185,-0.6497244238853455,-0.20142225921154022,0.24484410881996155,0.4973182678222656,0.6344025731086731,-0.722943127155304,-0.7753137350082397,0.9541860222816467,0.0081408666446805,-0.590765655040741,-0.01758268103003502,-0.9361197352409363,-0.5623221397399902,-0.035874444991350174,0.10275623202323914,-0.234778493642807,-0.6928783059120178,-0.6889263987541199,0.6332515478134155,-0.19105264544487,0.18477733433246613,0.09802024066448212,0.20966868102550507,-0.049842189997434616,0.09162360429763794,0.30448368191719055,0.6310095191001892,-0.05522526055574417,-0.25191593170166016,0.15334734320640564,0.4427158236503601,-0.2383514791727066,-0.7166298627853394,0.4169336259365082,-0.7840436697006226,0.42653095722198486,0.04900627210736275,-0.510847806930542,0.6283738017082214,-0.5165706276893616,0.0703323483467102,-0.03233103081583977,0.005893271882086992,-0.548017144203186,0.4756413698196411,0.5599899888038635,0.6179834604263306,-0.6269898414611816,0.5175070762634277,0.5599707961082458,0.044118866324424744,-0.09617464244365692,-0.5625448226928711,-0.21900999546051025,0.6470233798027039,-0.4929395914077759,0.0030917415861040354,0.5803475975990295,-0.07770685851573944,0.5622944235801697,-0.06655682623386383,-0.3886803686618805,0.628736138343811,-0.4284425675868988,0.005127583630383015,-0.06639159470796585,0.049138084053993225,-0.4903511703014374,0.5155271887779236,0.39730599522590637,0.5925244092941284,-0.48969578742980957,0.5786566734313965,0.5090387463569641,0.022152986377477646,-0.5081503391265869,-0.6061937212944031,0.21908698976039886,0.59023118019104,-0.47903329133987427,-0.09159388393163681,0.4914977550506592,-0.011548802256584167,0.47437915205955505,0.3047178089618683,-0.2534412145614624,-0.01679881103336811,-0.879043698310852,0.5887418985366821,0.35700172185897827,-0.39073634147644043,-0.8517459034919739,0.2578122019767761,0.4612594544887543,0.8179376721382141,-0.7885899543762207,0.5759057998657227,0.3469822406768799,0.1647462695837021,-0.042226433753967285,0.008446798659861088,-0.08900156617164612,0.7471196055412292,-0.6667623519897461,0.4279820919036865,0.7860102653503418,-0.004972535651177168,0.8682368993759155,0.14595745503902435,0.07944116741418839,-0.10376308113336563,-0.681943953037262,-0.503364086151123,0.13369271159172058,-0.18784566223621368,-0.6854369044303894,-0.07092709839344025,0.05586919188499451,0.6136062145233154,-0.7247061133384705,0.37136971950531006,0.5501803159713745,0.649964451789856,0.21734052896499634,0.20658937096595764,-0.09828373044729233,0.6809819340705872,-0.43017104268074036,0.12398547679185867,0.7655947804450989,-0.293108195066452,0.7025651335716248,0.16083821654319763,-0.5705612897872925,0.11879946291446686,-0.6540746092796326,0.228946253657341,0.08040335029363632,-0.1473442018032074,-1.1024198532104492,0.6863700747489929,0.6636964082717896,0.7069045901298523,-0.8206208944320679,0.6073538064956665,0.5362046360969543,-0.2575669586658478,-1.2032279968261719,-0.8752900958061218,0.026821155101060867,0.7507451772689819,-0.8013618588447571,0.14079499244689941,0.7828787565231323,0.4504866600036621,0.7922433614730835,-0.021509915590286255,-0.3001615107059479,0.8652165532112122,-0.6339460611343384,0.040341660380363464,0.4594813883304596,0.008516854606568813,-0.700365424156189,0.7617446780204773,0.46448230743408203,0.5633467435836792,-0.6400980949401855,0.7796928882598877,0.638022243976593,0.01688716746866703,-0.40632516145706177,-0.5432433485984802,0.051593489944934845,0.6320965886116028,-0.515213131904602,0.02549368515610695,0.7138956785202026,0.19502060115337372,0.5280539393424988,-0.030159568414092064,-0.5023003816604614,0.5963212251663208,-0.5750451683998108,-0.07017134875059128,0.04572305828332901,-0.03883986920118332,-0.5490412712097168,0.4212730824947357,0.4253041446208954,0.5810107588768005,-0.5806186199188232,0.48899248242378235,0.5705848336219788,0.07702905684709549,-0.639477550983429,-0.5195821523666382,0.4392237365245819,0.5000322461128235,-0.5394366979598999,-0.08153582364320755,0.4839869737625122,0.03616282343864441,0.5103229880332947,-0.08194378763437271,0.16639305651187897,0.3531225919723511,-0.41969218850135803,0.03885465860366821,0.137780100107193,-0.06843802332878113,-0.5848053693771362,0.03961819410324097,0.19047851860523224,0.5370112657546997,-0.6274430751800537,0.5518110990524292,0.5737509727478027,0.0385022796690464,-0.3579621911048889,-0.4241192638874054,-0.1321752518415451,0.562099039554596,-0.057313453406095505,0.08562792092561722,0.5069069862365723,0.02099665068089962,0.5118357539176941,0.04757380485534668,-0.467059850692749,0.6226515769958496,-0.541901171207428,0.010609808377921581,0.13002853095531464,0.042560067027807236,-0.5405207872390747,0.5156261920928955,0.5589059591293335,0.5571966767311096,-0.6072819232940674,0.5569928288459778,0.5236853361129761,-0.0656278133392334,-0.4213965833187103,-0.508007287979126,-0.2840956151485443,0.4980943500995636,-0.3217375874519348,0.06725454330444336,0.593340277671814,0.04172510281205177,0.5471952557563782,0.7656381130218506,-0.5127820372581482,0.4167878329753876,-0.5967608690261841,0.03401128202676773,0.5751953721046448,-0.07480078935623169,0.006639798171818256,0.5334528684616089,0.4582292139530182,0.5992940664291382,-0.3914397358894348,-0.14032672345638275,0.4512481689453125,-0.11408430337905884,-0.43395477533340454,-0.2558842599391937,-0.5207701921463013,0.6549553871154785,-0.1868974268436432,0.09993091225624084,0.4552602171897888,0.05300764739513397,0.7029760479927063,0.19875840842723846,0.34163859486579895,-0.5348803997039795,0.41480207443237305,0.2121490240097046,0.2418772131204605,-0.17967571318149567,0.5838661789894104,-0.4517265558242798,-0.0883403941988945,-0.3504791259765625,-0.018718935549259186,-0.5851408839225769,-1.0125960111618042,-0.28381967544555664,0.45316317677497864,0.5472816824913025,-0.40069741010665894,-0.17997704446315765,0.1355394870042801,0.138919398188591,-0.5953087210655212,-0.3532089293003082,0.1064113900065422,0.047389641404151917,-0.25204914808273315,0.6157373189926147,-0.6140614151954651,0.008743679150938988,-0.007855648174881935,-0.019570739939808846,-0.6091103553771973,0.448064386844635,0.4622897803783417,0.5219308137893677,-0.5636374354362488,0.6484546661376953,0.6094162464141846,-0.05423012748360634,-0.6136313080787659,-0.5919201970100403,-0.17068274319171906,0.5038425922393799,-0.2342810183763504,-0.05015825480222702,0.5370296239852905,0.16836439073085785,0.5745456218719482,-0.30684369802474976,0.13821269571781158,0.04135880991816521,-0.696822464466095,-0.7662230730056763,-0.1319768875837326,0.7214375138282776,-0.37231603264808655,0.1006646454334259,-0.07949960231781006,0.9218251705169678,-0.5212582945823669,0.5386784672737122,2.110374689102173,0.8379068374633789,-0.0406055711209774,-0.12372563779354095,-0.11667851358652115,0.8127633929252625,0.5218846201896667,-0.7057428956031799,1.098429560661316,-0.7594788074493408,0.6291431188583374]},"inputHidden":{"rows":20,"columns":20,"weights":[0.6777333617210388,0.7178682088851929,0.7488245964050293,0.453403502702713,-0.09302544593811035,0.0178438201546669,-0.1086338609457016,-0.6157501339912415,-0.7851458191871643,-0.5808541774749756,-0.6268922686576843,0.6652413010597229,0.6900911331176758,-0.6398715972900391,-0.8007960319519043,0.8757915496826172,-0.6168347001075745,0.036877550184726715,-0.5920062065124512,0.8527266979217529,-0.18787690997123718,-0.18325845897197723,-0.1265166848897934,0.5775776505470276,-0.2845461070537567,0.027902787551283836,0.40509143471717834,0.13524769246578217,0.11153995990753174,0.12306635826826096,0.049076102674007416,-0.15816934406757355,-0.5109533071517944,0.19375848770141602,0.3692457377910614,-0.24010999500751495,0.01899663917720318,-0.06919372826814651,0.12213291972875595,-0.3284521698951721,0.729824960231781,0.7007052302360535,0.7470486164093018,0.5278176665306091,-0.1125878095626831,-0.036651916801929474,-0.04395284131169319,-0.7245792746543884,-0.7756520509719849,-0.7058383226394653,-0.7279918789863586,0.740658164024353,0.6541076898574829,-0.7057824730873108,-0.8201097249984741,0.7853614687919617,-0.46971768140792847,-0.08828700333833694,-0.3655470013618469,0.31481504440307617,0.027037080377340317,0.4095971882343292,-0.1677282452583313,-0.5600683093070984,-0.6298186779022217,-0.9575312733650208,0.7389298677444458,0.13731755316257477,-0.0781494677066803,-1.0036131143569946,-0.783719003200531,0.7638375163078308,0.6712067127227783,-0.01492005679756403,-0.5390983819961548,-0.0826941654086113,0.09608958661556244,1.1534395217895508,-0.047599874436855316,0.7147533893585205,0.021946346387267113,0.02376786805689335,0.06761570274829865,-0.13746759295463562,0.4403832256793976,0.1672336459159851,0.5329639315605164,-0.06767904758453369,-0.1583894044160843,0.031986936926841736,0.04974301531910896,0.032228875905275345,0.05132059380412102,-0.1928037405014038,-0.13642732799053192,0.06531736254692078,-0.10986312478780746,-0.031099973246455193,-0.23126724362373352,-0.0848684161901474,0.37398192286491394,-0.12451981008052826,0.43442752957344055,-0.2754223346710205,0.6868221759796143,0.029083818197250366,-0.758087158203125,-0.6297881007194519,-0.16852785646915436,0.7135857939720154,0.10494888573884964,-0.12066154181957245,0.38293135166168213,-0.35961148142814636,-0.10020416229963303,0.19889430701732635,-0.13984638452529907,-0.3381839096546173,-0.498688668012619,-0.5492833256721497,0.18878307938575745,0.05001112446188927,0.16208705306053162,-0.19278596341609955,0.3955071270465851,0.8734040260314941,0.5446431040763855,-0.1372775286436081,-0.3395833373069763,-0.005502477753907442,-0.049160052090883255,0.0830763652920723,0.35580188035964966,-0.19868196547031403,-0.3330032527446747,0.3338456451892853,-0.03684772923588753,-0.1604199856519699,-0.2610710561275482,-0.09150202572345734,0.7448359727859497,0.7168406248092651,0.7387672662734985,0.39245569705963135,-0.0676896721124649,-0.0074686165899038315,-0.08462034910917282,-0.6676636934280396,-0.7303608059883118,-0.7401136159896851,-0.6959853172302246,0.666763961315155,0.701265275478363,-0.7404379844665527,-0.7655497789382935,0.7898798584938049,-0.515343964099884,-0.11227092891931534,-0.5922167897224426,0.7315519452095032,0.7147647738456726,0.7287666201591492,0.7580955624580383,0.5928551554679871,-0.5271852016448975,0.0381573885679245,-0.06406192481517792,-0.6379097700119019,-0.8306576013565063,-0.6642630696296692,-0.690097451210022,0.8087764382362366,0.7066723704338074,-0.715724527835846,-0.8730142712593079,0.8323167562484741,-0.5239935517311096,-0.08029157668352127,-0.6095181107521057,0.954328179359436,0.07317453622817993,-0.030833734199404716,0.12929457426071167,0.2921576201915741,-0.3854679465293884,0.14280365407466888,0.45465654134750366,-0.13150185346603394,0.039943911135196686,-0.05553177744150162,0.020724736154079437,-0.003738612402230501,-0.19383323192596436,0.12081445008516312,0.13554441928863525,0.08379349112510681,-0.16505782306194305,-0.17862626910209656,-0.032129544764757156,0.07619892060756683,-0.029767459258437157,0.053952157497406006,-0.06424286961555481,0.3028711974620819,-0.3346261978149414,0.00873310212045908,0.556469738483429,0.09333430975675583,0.044977303594350815,0.06442718207836151,0.06367994099855423,0.05349799245595932,-0.14317016303539276,0.0837801992893219,0.2109457105398178,-0.12017286568880081,-0.023792339488863945,-0.1469506472349167,0.05554811656475067,-0.009290448389947414,0.05566245689988136,0.056113921105861664,0.18079693615436554,0.3479556739330292,-0.37722766399383545,0.1522771120071411,0.5085992217063904,-0.02435404062271118,0.005136821884661913,-0.08250055462121964,-0.009697513654828072,-0.09134434908628464,-0.24701328575611115,0.06552723050117493,0.14623810350894928,-0.014509228989481926,-0.11511465162038803,-0.14397919178009033,-0.07028800249099731,0.31034183502197266,0.3684268891811371,0.5609001517295837,0.34578144550323486,0.142282634973526,-0.5142061710357666,0.015097137540578842,0.482310950756073,-0.35118377208709717,-0.3156581521034241,-0.58823561668396,-0.6898391246795654,0.5152190327644348,-0.17146557569503784,-0.18564991652965546,-0.11460646241903305,0.36731961369514465,-0.19499927759170532,-0.023695673793554306,-0.32050418853759766,0.6396938562393188,0.7662925124168396,0.7334039211273193,0.7028248310089111,0.5636225342750549,-0.2930324077606201,-0.11316400021314621,-0.09524769335985184,-0.7328882217407227,-0.7088217735290527,-0.7135809659957886,-0.7569805383682251,0.7558029294013977,0.7499936819076538,-0.7234984636306763,-0.7756034731864929,0.7692320942878723,-0.4421749413013458,-0.04898170754313469,-0.477909117937088,0.773952841758728,0.5459656119346619,0.661654531955719,0.7765623331069946,-0.1523676961660385,-0.36147060990333557,-0.02429438941180706,0.40931838750839233,-0.7288216948509216,-0.5772120356559753,-0.6905725598335266,-0.6591033935546875,0.5711382031440735,0.36485233902931213,-0.5200585126876831,-0.550660252571106,0.5598164200782776,-0.3552553653717041,-0.017931247130036354,-0.36326131224632263,0.454552561044693,0.8163161277770996,0.7178429365158081,0.7671988010406494,0.40597283840179443,-0.5339260697364807,0.02076481096446514,0.21755486726760864,-0.814943790435791,-0.7651084065437317,-0.6804196834564209,-0.8028753995895386,0.6959289312362671,0.7768979668617249,-0.6938750743865967,-0.798069953918457,0.839716911315918,-0.6364766955375671,0.010296773165464401,-0.6227688193321228,1.1053720712661743,0.8222367763519287,0.7255411148071289,0.882585883140564,0.46636679768562317,-0.12597712874412537,-0.013018225319683552,-0.06018022447824478,-0.7542060017585754,-0.8842064142227173,-0.8070231080055237,-0.7944048047065735,0.9685343503952026,0.862494170665741,-0.8835930824279785,-0.8778784275054932,0.9558840990066528,-0.8863992094993591,-0.15330789983272552,-1.0453509092330933,0.8617491126060486,0.4362693428993225,0.14034898579120636,0.26434898376464844,-0.08256007730960846,-0.18556757271289825,0.35327836871147156,0.10176458954811096,-0.594147801399231,-0.3358675241470337,0.0073252953588962555,-0.08923731744289398,0.020382162183523178,0.17543160915374756,-0.37225499749183655,-0.2100202441215515,0.2665444016456604,-0.3507838249206543,-0.3542172908782959,-0.4059508144855499,0.19858418405056,0.7597385048866272,0.8534741401672363,0.8537760376930237,0.2637254595756531,-0.11907941102981567,0.0798860490322113,0.05334065109491348,-0.7786454558372498,-0.6936702132225037,-0.7095934152603149,-0.6514397263526917,0.6581441164016724,0.5073685050010681,-0.604745626449585,-0.6355879306793213,0.6757287383079529,-0.6645888090133667,-0.10248848050832748,-0.5266593098640442,0.28680112957954407,0.09801781177520752,0.14464980363845825,0.01871580444276333,-0.04487696290016174,-0.05133780092000961,-0.046187806874513626,0.6839008927345276,-0.11129014939069748,-0.029098525643348694,-0.14663510024547577,-0.20044690370559692,0.1748221069574356,-0.004140755161643028,-0.032284144312143326,0.004535291809588671,0.1026533916592598,-0.040682602673769,0.09738857299089432,0.035061441361904144,-0.09610200673341751]},"inputBias":{"rows":20,"columns":1,"weights":[0.7870528101921082,0.9132276177406311,0.8478568196296692,2.846989870071411,-0.8037505745887756,0.18586429953575134,-0.4341632127761841,0.8897484540939331,0.149515762925148,-0.1272791177034378,0.015183118171989918,-0.2938445210456848,-0.4960763156414032,0.23754508793354034,-0.5361685156822205,-0.32511115074157715,-0.27803587913513184,0.4640176594257355,-0.8376724720001221,-0.9536300301551819]},"forgetMatrix":{"rows":20,"columns":24,"weights":[0.09325768053531647,-0.937711238861084,0.7145410180091858,-0.52232825756073,0.10376589745283127,0.5305845737457275,-0.07006080448627472,-0.7647449374198914,0.6002130508422852,0.8343604803085327,0.7174174785614014,-0.6589659452438354,0.8484898805618286,0.9358599781990051,-0.22370916604995728,-0.5854448676109314,-0.7433084845542908,0.694437563419342,0.5774308443069458,-0.5972697138786316,0.18049030005931854,0.6547077894210815,0.25597110390663147,0.3355599045753479,0.04433012753725052,-0.5886281728744507,0.4800645411014557,-0.6602734923362732,0.013014833442866802,0.21577568352222443,-0.052239108830690384,-0.5753334164619446,0.584585964679718,0.6700263619422913,0.6772476434707642,-0.421000599861145,0.5085961222648621,0.5554938316345215,-0.1939646601676941,-0.47331714630126953,-0.6152341961860657,0.6780893206596375,0.6007167100906372,-0.6716366410255432,0.031131120398640633,0.6114108562469482,0.0449603870511055,0.5556914806365967,0.07401081919670105,-0.8487029671669006,0.6585531234741211,-0.6663969159126282,0.06447643786668777,0.1676199585199356,-0.161266028881073,-0.6792412400245667,0.541199803352356,0.8183884620666504,0.6627481579780579,-0.5698557496070862,0.7882295250892639,0.7454714179039001,-0.17926131188869476,-0.6226360201835632,-0.8052142262458801,0.6526678204536438,0.4920078217983246,-0.6873301267623901,0.2206929326057434,0.7040081024169922,0.24215547740459442,0.6289867758750916,-0.20833903551101685,-0.21535804867744446,-0.33211177587509155,-0.15244337916374207,-0.821063756942749,-0.32652613520622253,0.1445479691028595,0.5453594326972961,0.8324496746063232,0.38108721375465393,0.5487769842147827,0.44210195541381836,-0.19997872412204742,-0.044661443680524826,0.3465428054332733,0.184870183467865,0.4780067801475525,0.47536271810531616,0.2625848352909088,-0.04311801865696907,-0.5389847755432129,-0.10067380964756012,-0.8671325445175171,0.07345820963382721,-0.4734405279159546,-0.060536548495292664,0.06123807281255722,-0.12754295766353607,-0.5968631505966187,-0.2601591646671295,0.4417816996574402,-0.09099016338586807,0.06154484301805496,0.1526535302400589,0.10978065431118011,-0.4393255114555359,-0.10130017250776291,0.004762834869325161,0.5471033453941345,0.11096859723329544,-0.10104359686374664,0.14656080305576324,0.7457516193389893,-0.15397651493549347,-0.5958763957023621,0.8017048835754395,-0.5228523015975952,0.3287421464920044,0.27932602167129517,0.36710283160209656,-0.11297333240509033,0.06189528852701187,0.46112269163131714,0.2279912233352661,-0.5030134916305542,0.0001332366227870807,-0.2898447811603546,-1.1130826473236084,-0.42557328939437866,-0.10232498496770859,-0.10253795236349106,0.07614193111658096,-0.2287585735321045,-0.2793772518634796,-0.09639575332403183,-0.3660699129104614,0.06540540605783463,0.7854433655738831,0.31151869893074036,-0.05011104419827461,0.4368402659893036,-0.23863832652568817,-0.5577276349067688,0.11292064189910889,-0.08123119920492172,0.4361691176891327,-0.5970207452774048,-0.43045732378959656,0.5877700448036194,0.19113411009311676,-0.27916574478149414,-0.2667730152606964,-0.1869303584098816,0.39130672812461853,-0.35251474380493164,-0.07683277875185013,0.5391373038291931,0.277583509683609,0.1568538248538971,-0.09959682822227478,-0.07475283741950989,0.30666089057922363,-0.6179925799369812,-0.27924928069114685,-0.6402605772018433,-0.330815851688385,0.020706212148070335,-0.8365007638931274,0.5673550367355347,-0.6356347799301147,0.053684547543525696,0.08462996780872345,-0.11036529392004013,-0.6082838773727417,0.5681472420692444,0.7396829128265381,0.5937662720680237,-0.5356940627098083,0.8500099182128906,0.9007275104522705,-0.16404585540294647,-0.7014687657356262,-0.725753664970398,0.5665823817253113,0.4681508243083954,-0.6979167461395264,0.135683074593544,0.6616929173469543,0.24260641634464264,0.6598029136657715,-0.19007213413715363,-1.0266691446304321,0.7752768993377686,-0.4705919921398163,0.12485653162002563,-0.18815022706985474,-0.0025475635193288326,-1.0512821674346924,0.6689819693565369,0.8543273210525513,0.9534425139427185,-0.7276691198348999,0.9901833534240723,1.130242109298706,-0.035312239080667496,-0.7910417914390564,-1.082201361656189,0.9798535704612732,0.8805366158485413,-0.8371994495391846,0.16575835645198822,1.0597209930419922,0.0062094940803945065,0.5485266447067261,0.05411141738295555,-0.704823911190033,0.6687729358673096,-0.5162420272827148,0.05810088664293289,0.16941776871681213,-0.03430537134408951,-0.6462504863739014,0.7235873341560364,0.6630408763885498,0.6104612350463867,-0.5632745623588562,0.6644596457481384,0.7133901119232178,-0.11770816892385483,-0.5510101318359375,-0.5767383575439453,0.7389824986457825,0.6652776002883911,-0.437730997800827,-0.006194149609655142,0.7867944836616516,-0.0004341958847362548,0.46020013093948364,-0.03954695910215378,-0.7674722671508789,0.6637912392616272,-0.4922471344470978,0.0633656308054924,0.1638735681772232,-0.12105203419923782,-0.734205961227417,0.7797549962997437,0.7214889526367188,0.6851843595504761,-0.6855016946792603,0.8044366240501404,0.6671068668365479,-0.04974233731627464,-0.5846192836761475,-0.764320433139801,0.6473460793495178,0.42488041520118713,-0.45783376693725586,0.08284725993871689,0.797126293182373,0.03580319136381149,0.2864193022251129,-0.004223608411848545,-0.8414654731750488,0.6392253041267395,-0.9447557330131531,0.08564794063568115,0.15054410696029663,-0.08223018795251846,-0.611884593963623,0.760613203048706,0.7108393907546997,0.7141258120536804,-0.6506633758544922,0.7220800518989563,0.6401218175888062,-0.18421390652656555,-0.4437049329280853,-0.6880792379379272,0.7729161977767944,0.7326308488845825,-0.7178004384040833,0.09786888211965561,0.7171462774276733,0.01643432304263115,0.6849872469902039,0.07022640854120255,-0.886992871761322,0.6646284461021423,-0.5253641605377197,0.04972844198346138,0.11612343043088913,-0.058172617107629776,-0.9823787212371826,0.8008740544319153,0.6702593564987183,0.7433075904846191,-0.6924070715904236,0.9639453887939453,0.622838020324707,-0.09276566654443741,-0.6906136274337769,-0.8029956817626953,0.7930342555046082,0.7415258288383484,-0.4824261963367462,0.11887902021408081,0.8542662858963013,0.1687132567167282,0.4329899847507477,-0.050816599279642105,-0.8922945857048035,0.6628614068031311,-0.34784772992134094,0.08978480100631714,-0.12445948272943497,-0.10705459117889404,-0.7158334255218506,0.5506701469421387,0.832027018070221,0.7710995078086853,-0.573947548866272,0.8984200954437256,1.112611174583435,-0.11608831584453583,-0.6109716296195984,-0.890228807926178,0.7332930564880371,0.43895888328552246,-0.7287564277648926,0.22236034274101257,0.8129688501358032,0.20888982713222504,0.23069140315055847,-0.1680898666381836,-1.1491007804870605,0.6844340562820435,-0.4333660900592804,0.0897025391459465,-0.15472367405891418,-0.013611980713903904,-1.0532174110412598,0.6867928504943848,0.8175598978996277,0.8328033685684204,-0.6144471168518066,0.9345167279243469,1.267799735069275,-0.05987567827105522,-0.7708298563957214,-1.1974178552627563,0.9529759287834167,0.995561420917511,-0.8117082118988037,0.12271587550640106,1.0903587341308594,0.03381367400288582,0.640828013420105,-0.14444772899150848,-1.1005034446716309,0.770291268825531,-0.4899443984031677,0.03756805881857872,-0.24955952167510986,-0.032895080745220184,-1.157484531402588,0.5488253235816956,0.8818717002868652,0.9705629944801331,-0.6295404434204102,0.9476420879364014,1.2268359661102295,-0.030755149200558662,-0.6813489198684692,-1.0935062170028687,1.0599662065505981,0.9473926424980164,-1.0456359386444092,-0.03407452255487442,1.2818198204040527,-0.12451577186584473,0.47025740146636963,-0.12770415842533112,-0.8001030683517456,0.7704072594642639,-0.4763599932193756,-0.03245871514081955,-0.1709565371274948,0.13912354409694672,-0.8177332282066345,0.6234344840049744,0.713076114654541,0.7525748014450073,-0.5907761454582214,0.6488218903541565,0.9079609513282776,0.0410284548997879,-0.6855670213699341,-0.7215557098388672,0.8042482733726501,0.522534191608429,-0.5805946588516235,-0.04974856972694397,0.8030455708503723,0.06377867609262466,0.2714071273803711,-0.1171017661690712,1.0297319889068604,-0.2701493203639984,0.8162239789962769,-0.05132667347788811,-0.24116401374340057,0.0031969118863344193,0.6150228381156921,-0.8080349564552307,-0.8128963708877563,-0.6458135843276978,0.7812554240226746,-0.43990907073020935,-0.600699782371521,0.04360928758978844,0.30406317114830017,0.5451957583427429,-0.11885561048984528,-0.42852920293807983,1.0579010248184204,-0.07205754518508911,-0.4520180821418762,-0.3240469992160797,-0.8608693480491638,0.1271403580904007,-0.8117656707763672,0.6708375811576843,-0.3615186810493469,0.16868160665035248,0.07190791517496109,-0.08386731147766113,-0.7101580500602722,0.5314391255378723,0.6496551036834717,0.6250556111335754,-0.5877570509910583,0.6786421537399292,0.8619617223739624,-0.14611533284187317,-0.584993302822113,-0.674045979976654,0.5963892936706543,0.46842488646507263,-0.4003777801990509,0.3121089041233063,0.5332359671592712,0.2653588056564331,0.3360674977302551,0.21218788623809814,-0.6091091632843018,0.5104236006736755,-0.7344315052032471,0.07695335894823074,0.22900205850601196,-0.1645308881998062,-0.7663384675979614,0.611889123916626,0.6362619996070862,0.5873278975486755,-0.42899689078330994,0.6159424185752869,0.6166118383407593,-0.23647081851959229,-0.5324704051017761,-0.6930044889450073,0.16265937685966492,0.5523348450660706,-0.7459176182746887,0.24065768718719482,0.6285172700881958,0.3880636692047119,0.5966192483901978]},"forgetHidden":{"rows":20,"columns":20,"weights":[0.5413406491279602,0.7139475345611572,0.5430407524108887,0.5934677124023438,0.0018462453735992312,0.12805676460266113,0.0005601933808065951,-0.5325432419776917,-0.6213988661766052,-0.6880226135253906,-0.6305156350135803,0.5211025476455688,0.5865038633346558,-0.5813870429992676,-0.7535216212272644,0.6381521821022034,-1.059574007987976,0.6549087762832642,-0.604172945022583,0.6885267496109009,0.6916160583496094,0.6547300219535828,0.6314929127693176,0.6113991737365723,0.010131177492439747,-0.6367956399917603,0.043538302183151245,-0.6573595404624939,-0.5525132417678833,-0.6354982852935791,-0.5870534181594849,0.566927433013916,0.6707316637039185,-0.6986994743347168,-0.6848307251930237,0.6709006428718567,-0.6397075653076172,0.5624071359634399,-0.6766492128372192,0.6011456251144409,0.5465813875198364,0.5820150375366211,0.698047935962677,0.6452926397323608,0.1030459776520729,0.06756774336099625,-0.016229527071118355,-0.5935949683189392,-0.7479166388511658,-0.7176008820533752,-0.542277455329895,0.5049867033958435,0.6337323188781738,-0.6279505491256714,-0.7999560832977295,0.6427263021469116,-0.9863488078117371,0.11243119835853577,-0.7751625776290894,0.4287204146385193,0.9185500741004944,0.2805774509906769,0.44709521532058716,-0.23224616050720215,0.01340393628925085,-0.6396325826644897,-0.08865130692720413,-0.441101610660553,-0.8194211721420288,-0.4394603669643402,-0.27802810072898865,0.8193382024765015,0.5691938400268555,-1.3415261507034302,-0.5817713141441345,0.8445500135421753,-0.8548997640609741,0.4520968496799469,-0.5199142694473267,0.0358344167470932,0.49323806166648865,0.5507637858390808,0.9123611450195312,0.7314630150794983,-0.47152799367904663,0.22753937542438507,0.6246643662452698,-0.43641793727874756,-0.38335371017456055,-0.6807799339294434,-0.6301257610321045,0.5945047736167908,0.6542066931724548,-0.6323463916778564,-0.6158279776573181,0.7302260398864746,-0.64799964427948,0.12085066735744476,-0.7192923426628113,0.44664424657821655,0.454696387052536,0.03878756985068321,0.3130989372730255,0.15342596173286438,0.0034412587992846966,1.076102614402771,0.0870516374707222,-0.34293287992477417,-0.5070205926895142,0.04763887822628021,0.06906722486019135,0.10456006228923798,0.10450723022222519,-0.5163332223892212,-0.23958513140678406,0.36441224813461304,-0.19159606099128723,-0.7931689023971558,-0.13812439143657684,0.2532992660999298,0.11749067157506943,0.07262056320905685,0.13340969383716583,0.06721608340740204,-0.5725657939910889,0.7463902831077576,0.48716384172439575,-0.03411608189344406,-0.20750147104263306,-0.19389788806438446,-0.5338380932807922,0.4810069501399994,0.6757365465164185,-0.1980247050523758,-0.32693907618522644,0.32929253578186035,0.15702848136425018,-0.0738350972533226,-0.4986365735530853,0.5068296194076538,0.580424427986145,0.6468690633773804,0.6349261999130249,0.6198695302009583,0.1278231143951416,0.09410903602838516,-0.053912270814180374,-0.6720090508460999,-0.6711350679397583,-0.762947142124176,-0.682144820690155,0.506904661655426,0.49277663230895996,-0.5771499276161194,-0.7475051283836365,0.7003051042556763,-1.062217354774475,0.4192245304584503,-0.650762140750885,0.5983185172080994,0.5460131764411926,0.33060166239738464,0.45207497477531433,0.6838609576225281,-0.08704615384340286,0.13572634756565094,0.058139171451330185,-0.43033567070961,-0.3809865415096283,-0.35538336634635925,-0.2576344907283783,0.22540098428726196,0.45321598649024963,-0.48520627617836,-0.3170187771320343,0.3136723041534424,-0.9657723307609558,0.5312192440032959,-0.38349053263664246,0.39442673325538635,0.6573982238769531,0.5616161823272705,0.6321280598640442,0.5664113759994507,-0.4646371603012085,-0.6103403568267822,-0.04204873740673065,-0.5945584177970886,-0.5232045650482178,-0.6144278645515442,-0.6285687685012817,0.5525667667388916,0.5846351385116577,-0.5445455312728882,-0.6082139015197754,0.6165658831596375,-0.6261580586433411,0.6502206921577454,-0.5856240391731262,0.37522077560424805,0.5054759979248047,0.4878252148628235,0.5116944909095764,0.6207962036132812,-0.4652422070503235,-0.09963148832321167,0.09011572599411011,-0.5497207641601562,-0.4948103725910187,-0.5214180946350098,-0.498972624540329,0.45742717385292053,0.4436551332473755,-0.5075322389602661,-0.5030059218406677,0.41040322184562683,-0.729674756526947,0.25555968284606934,-0.4681175649166107,0.45322471857070923,0.5642085671424866,0.5488121509552002,0.5642918348312378,0.6839035153388977,-0.5150891542434692,-0.5664539337158203,0.049657195806503296,-0.5302467346191406,-0.571478009223938,-0.5587419867515564,-0.4635295569896698,0.5057114958763123,0.575780987739563,-0.5518516302108765,-0.5820921063423157,0.4284246265888214,-0.6318585872650146,0.834144115447998,-0.4591793715953827,0.34108951687812805,0.4989047348499298,0.8037490844726562,0.48632141947746277,0.6203981041908264,-0.9238451719284058,-0.4002171754837036,0.8321717381477356,-0.5006171464920044,-0.4361034333705902,-0.8382634520530701,-0.7545095682144165,0.6586868762969971,0.3372237980365753,-0.48175618052482605,-0.485629141330719,0.47458842396736145,-0.7172784209251404,1.0722582340240479,-0.4771396517753601,0.7217674255371094,0.472339391708374,0.6691416501998901,0.5138137936592102,0.7001944780349731,-0.10998506098985672,-1.140430212020874,-0.09993807971477509,-0.4718046486377716,-0.5073204636573792,-0.7783785462379456,-0.6286945939064026,0.5970649123191833,0.40503326058387756,-0.5084474682807922,-0.553027331829071,0.46643558144569397,-1.0933758020401,1.478532075881958,-0.5795193910598755,0.6315544247627258,0.5382906794548035,0.596564531326294,0.5029107928276062,0.5714079737663269,-0.5227774977684021,-0.035148151218891144,0.5525731444358826,-0.4959360659122467,-0.5167590379714966,-0.6179976463317871,-0.43363937735557556,0.46458494663238525,0.4693191647529602,-0.49034273624420166,-0.453369140625,0.36645591259002686,-0.7851155996322632,0.27041295170783997,-0.5775074362754822,0.39347314834594727,0.5206676125526428,0.5090048909187317,0.5202734470367432,0.7284871935844421,-0.0834016427397728,0.1870751529932022,0.03033171221613884,-0.5547724366188049,-0.482972115278244,-0.4443005919456482,-0.3091360926628113,0.2024897038936615,0.4832703471183777,-0.4977004826068878,-0.42767632007598877,0.4334973096847534,-0.8701251149177551,0.6985463500022888,-0.5377757549285889,0.31759291887283325,0.615594744682312,0.7189953327178955,0.6540175080299377,0.6671191453933716,-0.9291075468063354,0.14678780734539032,0.45273756980895996,-0.5999341011047363,-0.7686500549316406,-0.7849095463752747,-0.7749049067497253,0.6100215315818787,0.5359262824058533,-0.6059209108352661,-0.5901207327842712,0.7639683485031128,-0.32377392053604126,0.6031199097633362,-0.5012972354888916,0.4148547351360321,0.40772953629493713,0.38674411177635193,0.37961623072624207,-0.11111578345298767,-0.23398850858211517,-0.09873216599225998,0.09972090274095535,-0.4848988652229309,-0.31952473521232605,-0.43450725078582764,-0.448558509349823,0.7063426375389099,0.8469235897064209,-0.7288601398468018,-0.5364925861358643,0.5892950892448425,-0.39275339245796204,-0.07411623746156693,-0.388104110956192,0.45291128754615784,0.6764552593231201,0.7130310535430908,0.7025352120399475,0.48994243144989014,-0.8965450525283813,0.18639212846755981,0.7665071487426758,-0.7065653204917908,-0.6372677683830261,-0.85948246717453,-0.7879396080970764,0.7904365658760071,0.6448058485984802,-0.5689628720283508,-0.675259530544281,0.7282252907752991,-0.9473528265953064,-0.3401532471179962,-0.6678984761238098,0.7119349241256714,0.5880783796310425,0.5845547318458557,0.5334551930427551,0.5181360840797424,-0.41123828291893005,0.14791257679462433,0.6144440174102783,-0.5873169302940369,-0.5270896553993225,-0.5084271430969238,-0.50066077709198,0.45050013065338135,0.5157955288887024,-0.5867943167686462,-0.5534525513648987,0.5038817524909973,-0.6104416847229004,0.44021907448768616,-0.48077595233917236,0.36447638273239136]},"forgetBias":{"rows":20,"columns":1,"weights":[0,0,0,0,0,0,0,0,0,0,0,0,0,0,0,0,0,0,0,0]},"outputMatrix":{"rows":20,"columns":24,"weights":[-0.03351091593503952,-0.6051154732704163,0.5772605538368225,-0.47278648614883423,-0.07248716056346893,0.04847519472241402,0.04923442378640175,-0.6344326734542847,0.39688417315483093,0.5340549349784851,0.5084676146507263,-0.5698580741882324,0.603935718536377,0.523522675037384,0.0827215164899826,-0.5494123101234436,-0.5596829056739807,0.520514726638794,0.5689350366592407,-0.5786832571029663,0.00488089257851243,0.5299810171127319,0.005325355567038059,0.5434585809707642,0.07437320798635483,-1.3579784631729126,0.6333814263343811,-0.8651852011680603,0.10744909942150116,0.1466381996870041,-0.026720920577645302,-0.7295359969139099,0.7933914065361023,0.7619261741638184,0.5556856989860535,-0.8565753698348999,0.5801857113838196,0.5060421228408813,-0.14569072425365448,-0.7125454545021057,-0.7634323835372925,0.3198077976703644,0.5654253363609314,-1.047417163848877,0.00047627772437408566,0.7100307941436768,0.26103875041007996,0.9235175251960754,0.0015017817495390773,-0.6210913062095642,0.5597341656684875,-0.5854330658912659,0.02238473668694496,0.5771327614784241,0.07136640697717667,-0.6030921339988708,0.46225056052207947,0.5230203866958618,0.5864393711090088,-0.6925647854804993,0.534041702747345,0.5732412338256836,-0.034864652901887894,0.0296613909304142,-0.6814389228820801,-0.15138450264930725,0.654552698135376,-0.6579750776290894,0.01779509149491787,0.6526715159416199,0.08127903938293457,0.6032876968383789,-0.5766386985778809,-0.7492873072624207,0.388900488615036,-0.39418864250183105,-0.7032355666160583,-0.02947276458144188,0.6607699394226074,-0.38497236371040344,0.7813864946365356,0.9366658926010132,0.4257529377937317,-0.09027060121297836,0.31662461161613464,0.13743442296981812,0.6318576335906982,0.32578369975090027,-0.11285459250211716,1.406217336654663,0.4281655251979828,-1.1512057781219482,-0.7215224504470825,0.45284247398376465,-0.6645190119743347,0.1304130256175995,-0.7561060190200806,0.21380406618118286,-0.02490839548408985,-0.47213178873062134,-0.9068294167518616,0.326073557138443,0.7323331236839294,-0.024104775860905647,-0.0032381899654865265,-0.2775120139122009,0.23364785313606262,0.02840309962630272,-0.03828909620642662,0.6658592224121094,0.7850080132484436,0.1633729636669159,-0.008787482976913452,-0.006452319212257862,0.9868270754814148,0.10519622266292572,-0.9045184850692749,0.3305920958518982,-0.9458343386650085,0.5781174898147583,-0.125453382730484,0.8783667087554932,-0.5418075919151306,1.210030436515808,-0.14110317826271057,-0.16570286452770233,-0.05508359894156456,0.44629475474357605,-0.923023521900177,-1.216809630393982,-0.7673666477203369,0.8812852501869202,-0.5196555256843567,0.16460390388965607,0.3294323980808258,0.40159446001052856,0.5883387327194214,-0.9632958173751831,-0.5495056509971619,1.1752105951309204,0.021184783428907394,-0.4464300870895386,-0.21203529834747314,-1.2324273586273193,-0.5988044142723083,0.06739376485347748,0.13366666436195374,0.08377252519130707,-0.622210681438446,-0.7570310831069946,0.5896672010421753,-0.060046300292015076,0.03586120903491974,0.07526105642318726,0.17854587733745575,-0.03758329525589943,0.06133534014225006,0.2871209979057312,0.7204487323760986,-0.009169322438538074,-0.06821288913488388,0.1840161681175232,0.5019243359565735,-0.15207238495349884,-0.6618377566337585,0.22013281285762787,-0.8534262180328369,0.13294285535812378,0.015688272193074226,-0.49939802289009094,0.5962294340133667,-0.5384424328804016,0.021904323250055313,0.010324366390705109,0.028349313884973526,-0.5482934713363647,0.481449156999588,0.5737223029136658,0.5792050957679749,-0.5483357310295105,0.5990495681762695,0.5703286528587341,0.030536958947777748,-0.48619988560676575,-0.5240316987037659,0.22118927538394928,0.5521328449249268,-0.536357581615448,0.03956951946020126,0.5241690278053284,0.08265313506126404,0.5445966124534607,0.032643891870975494,-0.46590662002563477,0.5820081233978271,-0.4249354600906372,-0.04734580218791962,0.04765951260924339,0.03439255431294441,-0.5088651776313782,0.40753692388534546,0.5583488345146179,0.4689597189426422,-0.5784243941307068,0.512152910232544,0.6403720378875732,0.07303134351968765,-0.6461102962493896,-0.5191727876663208,0.48980164527893066,0.585917592048645,-0.447360098361969,0.01859840378165245,0.4561919867992401,0.07853808999061584,0.5029366612434387,0.0769369974732399,-0.7932785749435425,0.10246878117322922,-0.8980616331100464,0.14964830875396729,0.15865813195705414,-0.1405647248029709,-2.0506770610809326,0.5401066541671753,0.8572708368301392,0.7532430291175842,-1.148560643196106,0.7052363753318787,0.6351796388626099,-0.3772662878036499,-1.2885699272155762,-0.5440338253974915,0.18197384476661682,0.7494269609451294,-0.9843940138816833,0.22449977695941925,0.9257639050483704,0.6442001461982727,1.1824690103530884,-0.000021938774807495065,-0.46731501817703247,-0.06789135187864304,-0.7722727656364441,-0.18785463273525238,0.06872261315584183,0.04314444214105606,-1.4924826622009277,0.23878973722457886,0.38978320360183716,0.6704744696617126,-0.9626303315162659,0.8374769687652588,0.8421894907951355,0.17269939184188843,-0.5243578553199768,-0.1479930579662323,0.01927226409316063,0.7100437879562378,-0.7343646883964539,0.051825426518917084,1.0018047094345093,0.16181674599647522,0.8166565895080566,0.006838640663772821,-1.0183478593826294,0.8599478006362915,-0.7068849205970764,0.06991490721702576,0.05145560950040817,-0.048569489270448685,-1.1354762315750122,0.8070610165596008,0.6466257572174072,0.6600266098976135,-0.8591718077659607,0.6938509941101074,0.7535722851753235,-0.08877479285001755,-0.9555694460868835,-1.1561930179595947,0.20339429378509521,0.6954625844955444,-0.7306897044181824,-0.019495651125907898,0.7999172806739807,0.20481960475444794,1.1153054237365723,0.01739189215004444,-0.440582811832428,0.5152374505996704,-0.45229706168174744,-0.0008754311129450798,0.5743730068206787,-0.009992862120270729,-0.5780127644538879,0.4118470251560211,0.42042139172554016,0.5883445143699646,-0.6468848586082458,0.6212162971496582,0.6859122514724731,-0.11179107427597046,-0.33983689546585083,-0.6991363763809204,-0.0040094200521707535,0.5675949454307556,-0.3607054054737091,0.025460734963417053,0.6274580359458923,0.09431102871894836,0.5373587608337402,-0.025444498285651207,-0.7651908993721008,0.5533362030982971,-0.5357545018196106,-0.13118945062160492,-0.05381346493959427,0.06223594397306442,-0.5875027775764465,0.45120859146118164,0.5199514627456665,0.5469285845756531,-0.5746755599975586,0.5657747983932495,0.5921772122383118,-0.01436134148389101,-0.5440190434455872,-0.6283360123634338,0.7133488655090332,0.6504507064819336,-0.7651722431182861,-0.1251310408115387,0.6294913291931152,0.004879775457084179,0.5140177607536316,-0.12859615683555603,-0.43080049753189087,0.6196035742759705,-0.5111806392669678,-0.046973805874586105,-0.038875654339790344,0.12421862035989761,-0.5006347894668579,0.4323636293411255,0.4562481939792633,0.5856470465660095,-0.5714896321296692,0.6601017713546753,0.7191821336746216,0.07243166118860245,-0.5624021887779236,-0.6191733479499817,-0.08968017250299454,0.48562297224998474,-0.4448700547218323,0.048287320882081985,0.6768122911453247,0.004235513973981142,0.3985147476196289,-0.05429097265005112,-0.6312990784645081,0.5228526592254639,-0.49192559719085693,0.010044092312455177,0.1089998334646225,0.037704844027757645,-0.5620618462562561,0.3661969304084778,0.57887864112854,0.5735936760902405,-0.5230258107185364,0.5527573227882385,0.6368772387504578,-0.0027060299180448055,-0.5216425061225891,-0.4905487895011902,0.18852543830871582,0.4347580373287201,-0.3769785761833191,0.03075258620083332,0.42675262689590454,0.03367670252919197,0.4648094177246094,0.7768135666847229,-0.7459960579872131,0.5689035058021545,-0.6052323579788208,0.08112262934446335,0.2652379274368286,-0.16119398176670074,-0.5478963851928711,0.6089970469474792,0.6683933734893799,0.7438843250274658,-0.6226149797439575,0.1006123349070549,0.43905097246170044,-0.08454117923974991,-0.6247138977050781,-0.432233989238739,0.10755894333124161,0.7520140409469604,-0.7259262204170227,0.12197315692901611,0.4691547453403473,0.2544831931591034,0.6883204579353333,0.14609746634960175,0.41278204321861267,-0.4490983784198761,0.6214463114738464,0.24141450226306915,0.07307272404432297,-0.14266332983970642,0.5627956390380859,-0.6280959844589233,-0.315939337015152,-0.478057324886322,0.0511602908372879,-0.6515791416168213,-0.8884167075157166,-0.2941732108592987,0.43684688210487366,0.6360766291618347,-0.5813261866569519,-0.158819779753685,0.4332946240901947,0.10139527916908264,-0.588081955909729,-0.27188149094581604,-0.40376701951026917,0.00896518211811781,-0.35306233167648315,0.49891403317451477,-0.4043595790863037,0.043710242956876755,0.11998425424098969,0.01717681996524334,-0.5087820887565613,0.3112938404083252,0.4403513967990875,0.48765644431114197,-0.5765652656555176,0.6016575694084167,0.6833233833312988,-0.027115659788250923,-0.5674501657485962,-0.5685142874717712,-0.2879476547241211,0.5033788084983826,-0.18649183213710785,0.010375719517469406,0.49735745787620544,0.18257157504558563,0.34210205078125,-0.20892776548862457,0.058323197066783905,0.1159970611333847,-0.7586118578910828,-0.7433615326881409,-0.15501877665519714,0.5871788859367371,-0.46552574634552,0.3384689688682556,0.1184086799621582,1.308049201965332,-0.5546538829803467,0.7089364528656006,2.560122489929199,0.8771191239356995,-0.16779424250125885,-0.2173413336277008,0.0255860798060894,0.958076000213623,0.353890985250473,-0.7105103731155396,1.3861973285675049,-0.9299684166908264,0.7555745244026184]},"outputHidden":{"rows":20,"columns":20,"weights":[0.5988884568214417,0.6599843502044678,0.574573278427124,0.4842759072780609,-0.0801306813955307,-0.023035453632473946,-0.11005842685699463,-0.6884534358978271,-0.7044371366500854,-0.7119331359863281,-0.6551597714424133,0.6968868374824524,0.5889371633529663,-0.5623980164527893,-1.002378225326538,0.8456182479858398,-0.8414303660392761,-0.010394868440926075,-0.4847804307937622,0.6907312273979187,-0.39208030700683594,0.3423272371292114,-0.3803514540195465,1.4963233470916748,-0.2623042166233063,-0.005207526031881571,0.104060597717762,0.154160276055336,0.4196486473083496,-0.21038252115249634,-0.06735051423311234,-0.16385668516159058,-0.5174639225006104,0.4265715777873993,0.5670559406280518,-0.4098769426345825,0.2022685557603836,0.014012599363923073,0.19557806849479675,0.6414592862129211,0.5460831522941589,0.6780741810798645,0.6859935522079468,0.5961073637008667,-0.07297880202531815,0.0203409343957901,0.033072423189878464,-0.6212829947471619,-0.717701256275177,-0.6717945337295532,-0.7224557399749756,0.5724547505378723,0.660052478313446,-0.688571035861969,-0.9862837791442871,0.780135452747345,-0.7148945331573486,-0.09874648600816727,-0.5385929942131042,0.5473252534866333,0.16207346320152283,0.3782165050506592,0.07591940462589264,-0.32049331068992615,-0.7444608807563782,-0.8598456382751465,0.6545783877372742,-0.06247442588210106,-0.257858544588089,-1.2311960458755493,-0.9630131125450134,0.8483948111534119,0.32421067357063293,-0.2700936794281006,-0.8289514183998108,0.29400235414505005,-0.2730620503425598,0.8055828809738159,-0.41395869851112366,1.2400758266448975,0.1667814701795578,-0.07885129749774933,0.21000458300113678,-0.184795543551445,-0.49990314245224,0.22877137362957,0.6759763360023499,-0.2052800953388214,-0.23427726328372955,0.030163642019033432,-0.012944761663675308,0.07051938027143478,0.2120843231678009,-0.24450646340847015,-0.2926166355609894,0.28777989745140076,-0.12034094333648682,-0.1815238893032074,-0.44492870569229126,0.19542887806892395,0.3472276031970978,-0.027127789333462715,0.2921009957790375,-0.1618555188179016,-0.12461213022470474,0.5123535394668579,0.24636484682559967,-0.386974960565567,-0.18330621719360352,0.14506524801254272,-0.025559859350323677,-0.004075102973729372,0.3262696862220764,-0.23903977870941162,-0.270511269569397,0.3528468906879425,-0.49742835760116577,-0.5381684899330139,-0.33712685108184814,-0.019790349528193474,0.2330520749092102,0.12837213277816772,0.062128517776727676,-0.17387470602989197,-0.38241681456565857,1.2105803489685059,0.5647960901260376,-0.1849876344203949,-0.3144962191581726,0.08966057747602463,-0.03557971864938736,0.10156223177909851,0.3018021285533905,-0.31507477164268494,-0.33355453610420227,0.28366968035697937,-0.07370563596487045,-0.2806302309036255,-0.23970508575439453,0.018654197454452515,0.6330199837684631,0.7258602380752563,0.580723762512207,0.5393610000610352,-0.050188541412353516,-0.028238030150532722,-0.030196210369467735,-0.5531368851661682,-0.8518145680427551,-0.5955987572669983,-0.650733232498169,0.69060879945755,0.6726687550544739,-0.5767999291419983,-0.9156736731529236,0.8216966986656189,-0.5901638269424438,-0.1089395210146904,-0.4739399254322052,0.7713322043418884,0.6305743455886841,0.7896766066551208,0.6678050756454468,0.5692426562309265,-0.5036113858222961,-0.003003915539011359,0.07553046196699142,-0.6400374174118042,-0.8104711174964905,-0.7982362508773804,-0.7472952008247375,0.7691491842269897,0.6352766156196594,-0.6827604174613953,-0.7128815054893494,0.7318436503410339,-0.6541629433631897,-0.09995343536138535,-0.5303261876106262,0.9027812480926514,-0.26307398080825806,-0.02915429137647152,-0.16318833827972412,0.8998649716377258,-0.32391247153282166,0.16240181028842926,0.3749007284641266,0.2600727379322052,0.29971057176589966,-0.21946687996387482,-0.06440234184265137,-0.06435179710388184,-0.4774727523326874,0.469611793756485,0.446985125541687,-0.36098527908325195,0.12242601066827774,-0.09927872568368912,0.24128390848636627,0.583040177822113,-0.201131209731102,-0.10175959765911102,-0.23469582200050354,0.671646773815155,-0.32879942655563354,0.08996793627738953,0.48940348625183105,0.17399102449417114,0.3173559904098511,-0.06489071249961853,0.03792043402791023,-0.02470380812883377,-0.4183742105960846,0.30097293853759766,0.43205514550209045,-0.2921206057071686,0.07650819420814514,0.0021494750399142504,0.31140437722206116,0.1314268261194229,-0.09075881540775299,0.05349471792578697,0.008608976379036903,1.5675159692764282,-0.28191080689430237,0.11947484314441681,0.1765018105506897,0.07220222800970078,0.25077909231185913,-0.060217905789613724,0.014244862832129002,-0.15284131467342377,-0.5034704208374023,0.33468252420425415,0.4996974468231201,-0.2119046151638031,-0.19062189757823944,-0.07513152062892914,0.07648979127407074,0.514481246471405,0.45758527517318726,0.6279846429824829,0.6475334763526917,0.5711727738380432,-0.5729888677597046,0.09666263312101364,0.2948019504547119,-0.4827122688293457,-0.5152140259742737,-0.5812649726867676,-0.5165383219718933,0.44352495670318604,0.2895524501800537,-0.45608511567115784,-0.5246996879577637,0.5825383067131042,-0.7895814180374146,-0.03185210004448891,-0.5277131795883179,0.80254065990448,0.5715405344963074,0.735628604888916,0.5014476776123047,0.5988564491271973,-0.3021107316017151,-0.025421051308512688,0.04021061211824417,-0.5684147477149963,-0.6713605523109436,-0.89363032579422,-0.8033269047737122,0.8029360771179199,0.5190892815589905,-0.5722883343696594,-0.8131923079490662,0.6499300003051758,-0.5596446394920349,0.13086546957492828,-0.3893398940563202,0.9639252424240112,0.5786606073379517,0.9943887591362,0.6481871008872986,0.6923984289169312,-0.8241403698921204,-0.025783684104681015,0.8790684342384338,-0.5474942922592163,-0.48579370975494385,-1.0216343402862549,-0.8848174810409546,0.902040421962738,0.34058085083961487,-0.4485272467136383,-0.42109450697898865,0.4705021381378174,-0.5655784606933594,0.06658416241407394,-0.2706187069416046,1.0997523069381714,0.6791685223579407,0.710628867149353,0.7084327936172485,0.5347850918769836,-0.6730676889419556,0.069484643638134,0.2198566496372223,-0.7332804203033447,-0.8582233786582947,-0.8588865399360657,-0.8213179111480713,0.801897406578064,0.7630394101142883,-0.6992828845977783,-0.9353689551353455,0.7991394996643066,-0.8629121780395508,-0.10882433503866196,-0.6027960181236267,1.0607448816299438,0.8362428545951843,0.8035922050476074,0.7960841655731201,0.511711597442627,-0.60247403383255,0.030920417979359627,0.2707103192806244,-0.8243586421012878,-0.8563385605812073,-0.895541787147522,-0.8049784302711487,0.901995062828064,0.7842790484428406,-0.8420612215995789,-0.6925907731056213,0.8710321187973022,-0.5723780989646912,-0.14470013976097107,-0.6426646709442139,0.8529029488563538,0.5623952746391296,0.1838306337594986,0.44290509819984436,-0.3065809905529022,-0.17271313071250916,0.22761449217796326,0.14418035745620728,-0.6547842025756836,-0.48600637912750244,-0.060143716633319855,-0.14316661655902863,0.18320387601852417,0.351338654756546,-0.4719206988811493,-0.43720656633377075,0.35254937410354614,-0.49697816371917725,-0.28787311911582947,-0.37939319014549255,0.09679338335990906,0.782045304775238,0.8117834329605103,0.7714577913284302,0.5092027187347412,-0.3674728274345398,-0.052131447941064835,0.06575196981430054,-0.6826725602149963,-0.8661772012710571,-0.796211302280426,-0.7612505555152893,0.6747668385505676,0.5530574321746826,-0.6461735367774963,-0.8948321342468262,0.8808724284172058,-0.8969491720199585,-0.049515318125486374,-0.6309664845466614,0.7378348112106323,-0.04434545338153839,0.10808160156011581,-0.03294283151626587,0.15494324266910553,-0.07775691151618958,0.0015464023454114795,0.4931364059448242,0.013228951022028923,0.18602879345417023,-0.07866474241018295,0.06976359337568283,0.020349306985735893,-0.15871870517730713,0.09389007836580276,0.19685198366641998,-0.14301638305187225,-0.06579963862895966,0.10273965448141098,0.1696755439043045,-0.6118623614311218]},"outputBias":{"rows":20,"columns":1,"weights":[0.8272328972816467,0.9143072366714478,0.8593794107437134,2.6339428424835205,-0.7613229155540466,0.18776151537895203,-0.40970996022224426,0.8996923565864563,0.17908167839050293,-0.1450314074754715,0.00958891212940216,-0.290107399225235,-0.5421125888824463,0.27273669838905334,-0.5278122425079346,-0.3347957730293274,-0.2767985463142395,0.4860994219779968,-0.8992683291435242,-0.7712371349334717]},"cellActivationMatrix":{"rows":20,"columns":24,"weights":[0.9400432705879211,-0.17635245621204376,0.1830308884382248,-0.17942529916763306,0.5797839164733887,0.7407510876655579,-0.8410793542861938,-0.18728892505168915,0.2266494780778885,0.3279937505722046,0.35379558801651,-0.47378844022750854,0.18713819980621338,0.12886051833629608,-0.7545448541641235,-0.1941477507352829,-0.07976152747869492,0.07556568086147308,0.4084242284297943,-0.2953636944293976,0.8638964295387268,0.0626172423362732,0.5077400803565979,0.30080828070640564,0.6732624173164368,-0.06978797167539597,-0.011775058694183826,-0.36554160714149475,0.31940025091171265,0.7447667717933655,-0.5643592476844788,-0.03274696692824364,0.1219085305929184,0.29494163393974304,0.18950633704662323,-0.6447080969810486,0.19128209352493286,0.1147536113858223,0.005983654409646988,0.1033901497721672,-0.150567427277565,0.007848022505640984,0.15277528762817383,-0.2358730137348175,0.4159650504589081,0.10551507771015167,0.49033087491989136,0.35228151082992554,0.7784572839736938,-0.10751057416200638,-0.033735696226358414,-0.12328334897756577,0.5546445250511169,0.6560536623001099,-0.6470215916633606,0.014920493587851524,0.20408597588539124,0.3488876521587372,0.3258393406867981,0.020045435056090355,0.21326318383216858,0.2806647717952728,-0.7107273936271667,0.0420929379761219,0.13726118206977844,-0.1467122882604599,0.33945807814598083,-0.288065642118454,0.7725200057029724,0.004770377185195684,0.45856210589408875,0.3383448123931885,0.3041183650493622,-0.3244466781616211,-0.4966362416744232,0.2243329882621765,-0.15841707587242126,0.2607138752937317,-0.2145577371120453,0.6679693460464478,-0.3408468961715698,0.3686152696609497,-0.2310444861650467,0.2648584842681885,-0.6812101602554321,-0.8469143509864807,0.030954966321587563,0.5739768743515015,0.6677307486534119,-0.01422067079693079,-0.17774854600429535,-0.4179234206676483,-0.04757257550954819,-0.41405197978019714,-0.15128642320632935,-0.02146812342107296,-0.7397940158843994,-0.1659221202135086,-0.02968369983136654,0.1199452355504036,-0.6680743098258972,-0.4913874864578247,0.5584465861320496,-0.05380341783165932,-0.28667157888412476,-0.2619973123073578,-0.2194644808769226,-0.018631737679243088,0.1360429972410202,-0.18947260081768036,0.6357381343841553,-0.05996153876185417,-0.02401500754058361,-0.25682586431503296,-0.1448214054107666,0.039014894515275955,-0.6190827488899231,0.07434696704149246,-0.3578539192676544,0.05367947742342949,0.3059118390083313,0.34270983934402466,-0.5660644173622131,0.6031585931777954,0.3372490704059601,0.45688125491142273,-0.3429192900657654,0.24041806161403656,-0.8423898220062256,-0.690631628036499,-0.45395392179489136,0.2945447266101837,-0.4721237123012543,0.08077041059732437,-0.2305610477924347,0.3865147531032562,0.21875137090682983,-0.7329402565956116,-0.25741812586784363,0.3650605082511902,0.27172335982322693,-0.24889186024665833,0.37334156036376953,-0.424275279045105,0.560326099395752,-0.050874847918748856,0.3406904637813568,0.015167844481766224,0.6523438692092896,0.4651949107646942,-0.40923795104026794,-0.029925715178251266,0.25172072649002075,0.09197241067886353,0.005567491054534912,0.05387550964951515,0.1069679781794548,-0.003543716622516513,-0.7759498953819275,-0.13452214002609253,-0.23152250051498413,0.4005849063396454,-0.026844359934329987,0.11517944931983948,0.6817739605903625,0.06016365811228752,0.4902723729610443,-0.1857135146856308,-0.6951860189437866,0.4116463363170624,0.05258193612098694,0.29463937878608704,-0.5233995914459229,-0.873774528503418,0.4823749363422394,0.4199410080909729,-0.08884866535663605,-0.3593815863132477,-0.18112927675247192,0.1702357530593872,-0.34836545586586,-0.3067355751991272,0.14968754351139069,-0.17002688348293304,0.08120279759168625,0.12711559236049652,0.04688179865479469,0.3902207314968109,-0.79095858335495,-0.23537632822990417,-0.7821092009544373,-0.31583839654922485,-0.7841557860374451,0.26234760880470276,-0.336180716753006,0.4127635657787323,-0.7252259850502014,-0.9558780193328857,0.6361701488494873,0.1728580892086029,-0.4266907572746277,-0.33729100227355957,-0.2851864993572235,0.8774295449256897,-0.4211990535259247,-0.0746113732457161,0.7932151556015015,0.2516338527202606,0.3001098036766052,-0.11347568780183792,-0.1958957016468048,0.14367437362670898,-0.8258092403411865,-0.23441550135612488,-0.7778247594833374,-0.4027903378009796,-0.7685837745666504,0.1403307169675827,0.06099328398704529,0.23739579319953918,-0.6342757344245911,-0.6237451434135437,0.6058363914489746,0.09458433091640472,-0.21261076629161835,-0.25130781531333923,-0.2212975174188614,0.10489926487207413,-0.19181472063064575,-0.12005869299173355,0.5609949231147766,0.05476512014865875,-0.11992065608501434,0.05572840943932533,-0.11567696928977966,0.1754365861415863,-0.796676516532898,-0.0774378627538681,-0.6547498106956482,-0.2992343008518219,-0.7853983044624329,-0.09926192462444305,-0.08321712166070938,0.4466384947299957,-0.46759673953056335,-0.8840070962905884,0.5970057249069214,-0.21496982872486115,-0.36331906914711,-0.3005623519420624,-0.38977962732315063,0.639606773853302,-0.11753398180007935,-0.31067711114883423,0.5050742626190186,-0.12024661898612976,-0.010149376466870308,0.0073709082789719105,-0.4086999297142029,0.32544341683387756,-0.7162147164344788,-0.0876958817243576,-0.3913588225841522,-0.5066195130348206,0.6425561308860779,-0.020068813115358353,0.04969804733991623,-0.2379905879497528,0.4152531921863556,0.6092055439949036,-0.6643702983856201,-0.15884321928024292,0.2755981385707855,0.16924723982810974,0.20058956742286682,-0.07483384758234024,0.2578992545604706,-0.13051193952560425,-0.6160261631011963,-0.050582077354192734,-0.1480572521686554,0.05937763676047325,0.16718001663684845,-0.07498667389154434,0.7727457880973816,0.12705661356449127,0.4960096478462219,0.16422869265079498,0.7368547916412354,0.15492694079875946,0.13016021251678467,-0.10942238569259644,0.5202328562736511,0.7085932493209839,-0.6215181946754456,0.17796634137630463,0.31682246923446655,0.23286469280719757,0.2656005620956421,0.0696127787232399,0.13774430751800537,0.12410861253738403,-0.6604183316230774,-0.009438949637115002,0.1453532576560974,-0.06136510893702507,0.35156121850013733,-0.016507981345057487,0.776096522808075,0.015594766475260258,0.4407128393650055,0.10675834119319916,-0.8593102097511292,0.1751985400915146,-0.36060187220573425,0.22539854049682617,-0.7357364892959595,-0.7902424335479736,0.751756489276886,0.16580362617969513,-0.2810274064540863,-0.33308565616607666,-0.2605511248111725,0.8080213665962219,-0.23700211942195892,-0.14976800978183746,0.930644690990448,0.15658268332481384,0.1437786966562271,-0.17694756388664246,-0.336351603269577,0.17150676250457764,-0.8517173528671265,-0.15711939334869385,-0.7355420589447021,-0.24356895685195923,-0.7849178314208984,0.3217632472515106,-0.15427739918231964,0.5593202114105225,-0.7295496463775635,-0.9518583416938782,0.6282382011413574,0.13998232781887054,-0.3640093505382538,-0.4073485732078552,-0.2487957775592804,0.03714703395962715,-0.2591717839241028,0.020858248695731163,0.6377310156822205,0.12820251286029816,-0.0725231021642685,-0.076494500041008,0.04746489226818085,0.15081186592578888,-0.6847049593925476,0.08573108166456223,-0.6861719489097595,-0.33399948477745056,0.7678475379943848,-0.22643426060676575,0.058242686092853546,-0.4606266915798187,0.6117281913757324,0.8961593508720398,-0.8708863258361816,-0.2340061366558075,0.46185609698295593,0.3624427020549774,0.37069031596183777,-0.07970838248729706,0.3817458152770996,0.15747666358947754,-0.6317964792251587,-0.23419801890850067,-0.25017133355140686,0.09190651774406433,0.3946931064128876,-0.2352403998374939,0.8981478810310364,-0.026795610785484314,0.6096333265304565,0.5800166130065918,-0.8263250589370728,0.26498088240623474,-0.20683133602142334,0.3993527591228485,-0.9485387802124023,-1.0150933265686035,0.6290821433067322,0.19593852758407593,-0.07189437747001648,-0.0842655599117279,0.09172479063272476,-0.07195352762937546,-0.34908971190452576,0.26955467462539673,0.8268314003944397,0.25186407566070557,0.0615704171359539,0.03227865695953369,0.9484979510307312,-0.432453989982605,-0.9773379564285278,0.33982211351394653,-0.9807711243629456,0.13371217250823975,-0.12094802409410477,-1.1443567276000977,0.7903919816017151,-0.795953631401062,0.13960590958595276,0.05781000852584839,0.3297874927520752,-0.8348121047019958,0.6146920323371887,0.5606997609138489,0.3474411368370056,-0.967251181602478,0.8675470948219299,0.49952802062034607,-0.03199940174818039,-0.619695246219635,-0.8803884983062744,0.3688981831073761,0.19024714827537537,-0.6949501633644104,0.1024804338812828,0.7415587902069092,0.10780646651983261,0.7501768469810486,-0.5816866755485535,-0.04779787361621857,-0.051398664712905884,0.008929693140089512,-0.7145248651504517,-0.528991162776947,0.7133160829544067,-0.1594069004058838,-0.1836738884449005,-0.17407967150211334,-0.08672568202018738,-0.4494641125202179,-0.2572639286518097,0.09602497518062592,0.6777383089065552,0.12260384112596512,-0.03131277859210968,-0.02098422683775425,0.18060645461082458,-0.33427366614341736,-0.8408204317092896,0.2499002069234848,-0.6011705994606018,0.13848356902599335,0.5173673629760742,-0.09837888181209564,0.051714908331632614,-0.09321470558643341,0.39698395133018494,0.6068860292434692,-0.35961565375328064,-0.16696500778198242,-0.09478382021188736,0.041609372943639755,-0.0770767480134964,-0.13376259803771973,0.24349026381969452,-0.033358536660671234,-0.5159767270088196,0.0745750293135643,-0.11120268702507019,0.03931710124015808,0.048229072242975235,-0.05892236903309822,0.5505341291427612,0.22335892915725708,0.6010812520980835,0.02031688019633293]},"cellActivationHidden":{"rows":20,"columns":20,"weights":[0.18287613987922668,0.15390048921108246,0.23456254601478577,-0.07044748961925507,0.43790319561958313,0.8767276406288147,-0.5531240701675415,-0.26965469121932983,-0.30135539174079895,-0.06831156462430954,-0.05873328819870949,0.115472212433815,0.19168345630168915,-0.24265767633914948,-0.3325556814670563,0.20076210796833038,-0.17399488389492035,-0.7855872511863708,-0.35353338718414307,0.1071634292602539,0.06491084396839142,-0.04152902215719223,0.061264000833034515,-0.0036437034141272306,0.5349974632263184,0.7507253289222717,-0.6427359580993652,-0.059312012046575546,-0.0285581536591053,-0.015720637515187263,0.07012133300304413,0.0962357446551323,0.03532688319683075,-0.07546671479940414,-0.007103343959897757,0.053072597831487656,-0.02028818614780903,-0.47751832008361816,-0.04232294112443924,0.07527632266283035,0.031772393733263016,-0.03420182317495346,0.007498218212276697,-0.08892005681991577,0.49923717975616455,0.8477630615234375,-0.655279278755188,-0.11215242743492126,-0.23828166723251343,-0.0692242980003357,-0.03137490898370743,0.02513011358678341,0.19273249804973602,-0.08429275453090668,-0.20693202316761017,0.12471507489681244,-0.2192777544260025,-0.8271461725234985,-0.37871500849723816,0.011429006233811378,-0.47994464635849,-0.6513245105743408,-0.47167375683784485,-0.6128790378570557,0.9799227714538574,0.22980327904224396,-0.39766833186149597,0.5405561327934265,0.5633395910263062,0.502738356590271,0.6911338567733765,-0.6261309385299683,-0.5590106844902039,0.6326785087585449,0.6111925840377808,-0.626783013343811,0.6056602597236633,0.012342707253992558,0.5311264991760254,-1.0605583190917969,0.05168658494949341,0.008992074057459831,0.08120956271886826,0.04545172303915024,-0.45570802688598633,-0.8112423419952393,0.6694598197937012,0.048982828855514526,0.041213057935237885,0.0543467178940773,0.031588826328516006,-0.004230812191963196,-0.11240177601575851,0.046733736991882324,0.20238853991031647,-0.07528679072856903,0.15245746076107025,0.8491166830062866,0.23170842230319977,0.03558803349733353,-0.11539409309625626,-0.032195303589105606,-0.058100588619709015,-0.7206342816352844,0.6823089718818665,0.6749643683433533,-0.802413284778595,0.0760016068816185,-0.0172380693256855,0.4685911238193512,0.6243411302566528,-0.21147838234901428,-0.13846829533576965,0.008563641458749771,0.1760377138853073,-0.04563268646597862,0.015482340008020401,-1.0879846811294556,0.05573523789644241,-0.5237755179405212,0.06541768461465836,-0.15948057174682617,0.08504470437765121,-0.16135790944099426,0.20610311627388,0.8064926266670227,-0.5999873876571655,0.029342787340283394,-0.052232611924409866,0.021764958277344704,0.10167573392391205,-0.0732734203338623,0.06192449852824211,-0.05102376267313957,-0.15057305991649628,0.09536750614643097,-0.2372480183839798,-0.7965382933616638,-0.245746448636055,-0.11746689677238464,-0.061800844967365265,-0.07015294581651688,-0.17239134013652802,0.10093586891889572,-0.41595396399497986,-0.8590404391288757,0.5596195459365845,0.12294657528400421,0.2853672206401825,0.07218153774738312,-0.029849208891391754,-0.1901237815618515,-0.13439348340034485,0.1542319655418396,0.3051892817020416,-0.24241100251674652,0.25408750772476196,0.5360773801803589,0.2593676447868347,0.009452039375901222,-0.18661129474639893,0.0584602914750576,-0.11950689554214478,-0.08767908811569214,-0.32914644479751587,-0.7617626190185547,0.5539312362670898,0.18772228062152863,0.03572874143719673,-0.015115588903427124,-0.06850238144397736,0.02362971007823944,-0.0392596498131752,0.08167309314012527,0.05552203208208084,-0.010150063782930374,-0.07520069926977158,0.34748873114585876,0.07827142626047134,0.07536891102790833,-0.18523123860359192,-0.09837205708026886,-0.02466428466141224,-0.06899149715900421,-0.4784349501132965,-1.1734068393707275,0.649198055267334,0.1032802015542984,0.05859832465648651,0.06230723857879639,0.009755730628967285,-0.11401678621768951,-0.15882395207881927,0.03493039309978485,0.04093795642256737,-0.04203960299491882,-0.013003049418330193,-0.13246853649616241,0.21072883903980255,-0.024676352739334106,-0.1609210968017578,-0.1097409650683403,-0.15837566554546356,-0.1242038831114769,0.032339949160814285,-0.5756186842918396,0.6895044445991516,0.006740926299244165,-0.013882186263799667,0.07893720269203186,0.16709677875041962,-0.09366648644208908,-0.14200253784656525,-0.013158091343939304,-0.04273826628923416,0.018301213160157204,0.007655614521354437,0.635238766670227,0.002591590629890561,-0.06993995606899261,0.017009606584906578,-0.03572743386030197,-0.0008539438131265342,0.020660946145653725,0.5284948348999023,0.8535165190696716,-0.6082496643066406,-0.04215139150619507,-0.18947912752628326,-0.039243366569280624,0.020935388281941414,0.08941398561000824,0.15135209262371063,-0.1459944248199463,-0.04918915405869484,0.15364384651184082,-0.11080683022737503,-0.7704393863677979,-0.12159596383571625,0.10163207352161407,0.1464337855577469,0.11241350322961807,0.04175060987472534,-0.056015510112047195,0.11365412920713425,0.7668859362602234,-0.6284779906272888,-0.06125766038894653,-0.07326312363147736,-0.028702354058623314,0.004419572185724974,-0.01340560894459486,0.06758647412061691,0.01375524140894413,-0.06925394386053085,0.034494899213314056,-0.03215232118964195,-0.8235008716583252,-0.09152041375637054,-0.0018148645758628845,-0.32562676072120667,-0.06763865053653717,-0.23373499512672424,0.09190359711647034,-0.2626670300960541,-1.1579573154449463,0.6104651689529419,0.2724761962890625,0.34264808893203735,0.1357840895652771,0.17837485671043396,-0.18823522329330444,-0.26390522718429565,0.3051743805408478,0.3796165883541107,-0.32221224904060364,0.3390296399593353,0.2993347644805908,0.41403448581695557,-0.09539978951215744,0.09156094491481781,-0.015152187086641788,0.0453164242208004,0.03520594537258148,-0.5377460718154907,-0.7599493265151978,0.5117883086204529,-0.03957677260041237,-0.10206323117017746,0.012707349844276905,-0.019485941156744957,-0.006674021016806364,0.03327833488583565,-0.03886209428310394,-0.10034328699111938,0.03129534795880318,-0.12209787964820862,0.18870118260383606,0.010414879769086838,0.21384118497371674,0.15838028490543365,0.01723756454885006,0.0937991738319397,0.16134709119796753,0.4466359317302704,1.0155360698699951,-0.5389930009841919,-0.12357030063867569,-0.08154038339853287,0.12679660320281982,0.12436769157648087,0.013984411023557186,0.08021549880504608,-0.0688285157084465,-0.13492755591869354,0.03275938704609871,0.016729483380913734,-0.7635461091995239,-0.049641720950603485,-0.051517535001039505,0.026124784722924232,0.008633004501461983,-0.049657370895147324,-0.09123282134532928,-0.14892685413360596,-0.5610634088516235,0.6243479251861572,0.010119331069290638,-0.1463540643453598,-0.08485353738069534,-0.22417287528514862,0.04287730157375336,0.20723885297775269,-0.18040117621421814,-0.08871795237064362,0.14976903796195984,0.04024212062358856,0.05278090387582779,-0.11862192302942276,0.03936043009161949,-0.39446917176246643,-0.18368768692016602,-0.39249342679977417,0.5005908608436584,-0.26165223121643066,0.05557994544506073,0.715848982334137,0.4059690237045288,0.39126449823379517,0.038454148918390274,0.23139414191246033,-0.10247261822223663,-0.44748684763908386,0.4319702088832855,0.3617650270462036,-0.46498605608940125,0.3257899880409241,0.19001725316047668,0.4520662724971771,0.48034319281578064,-0.04634047672152519,0.04480595514178276,0.0017619227292016149,0.06328730285167694,-0.5928550362586975,-0.7847098112106323,0.5682084560394287,0.026642944663763046,0.13165651261806488,-0.021941399201750755,-0.06406623870134354,0.05307028815150261,-0.036114104092121124,0.055907730013132095,0.03499431535601616,-0.09114296734333038,0.07358695566654205,0.44077610969543457,0.10578414052724838,0.12237261980772018,0.12499252706766129,0.020734421908855438,0.08258455246686935,-0.0017959489487111568,0.6095699667930603,0.926162838935852,-0.4994649589061737,-0.14933811128139496,-0.0929102897644043,-0.12134432792663574,-0.13619689643383026,0.07939957827329636,0.14461354911327362,-0.04335813969373703,-0.1647256314754486,0.12182962149381638,-0.03007284551858902,-0.5446075797080994,-0.11453091353178024,-0.0527610145509243]},"cellActivationBias":{"rows":20,"columns":1,"weights":[0.3572259545326233,0.46152734756469727,0.6014108061790466,1.7074174880981445,-0.19494034349918365,0.12826597690582275,-0.014335422776639462,-0.5743981599807739,-0.22081920504570007,-0.3593004643917084,-0.17891289293766022,0.29196885228157043,0.26758071780204773,-0.22499854862689972,-0.2576928436756134,0.2778165340423584,-0.2599330246448517,0.42063620686531067,-0.14690132439136505,0.640365481376648]}},{"inputMatrix":{"rows":20,"columns":20,"weights":[-0.08324284106492996,0.017180323600769043,0.38711750507354736,2.2494451999664307,-0.3042476177215576,3.005044460296631,-0.12006572633981705,-0.4518033564090729,-0.37569355964660645,-0.16537639498710632,-0.2513430416584015,0.24767352640628815,-0.07755149900913239,-0.04149967432022095,-0.1304144710302353,0.4786219298839569,-0.47169920802116394,-1.995270848274231,-0.21235226094722748,1.1152738332748413,0.7599313855171204,0.620398759841919,0.7651388049125671,0.6220849752426147,-0.11904239654541016,0.34879717230796814,-0.0468742735683918,-0.6759110689163208,-0.8125372529029846,-0.5552688837051392,-0.5369194746017456,0.7728942632675171,0.6856445074081421,-0.8041620850563049,-0.6447546482086182,0.7418732643127441,-0.6444419622421265,0.02708081342279911,-0.745216965675354,0.1254740059375763,0.7337919473648071,0.5797877311706543,0.7557141184806824,0.6276950240135193,-0.15579500794410706,0.5095367431640625,-0.023243611678481102,-0.7567777633666992,-0.7111703157424927,-0.6836826205253601,-0.5500454306602478,0.7408080101013184,0.7556350827217102,-0.6743521094322205,-0.6394177675247192,0.7317367196083069,-0.6509304642677307,-0.463797003030777,-0.7544181942939758,-0.23075316846370697,0.830956220626831,0.49722105264663696,0.8774036169052124,0.32099971175193787,-0.022918477654457092,-0.47597524523735046,0.15717878937721252,-0.7676811218261719,-0.832033634185791,-0.3124603033065796,-0.16431112587451935,0.40405550599098206,0.4768541753292084,-0.8266622424125671,-0.4742523729801178,0.7311689257621765,-0.8282648324966431,0.7519806027412415,-0.82780921459198,0.10018273442983627,0.619229793548584,0.6101161241531372,0.663323700428009,-0.17105838656425476,-0.17306110262870789,0.4913371205329895,-0.012607961893081665,-0.46312761306762695,-0.5444567799568176,-0.023371512070298195,0.034467048943042755,0.4503645598888397,0.5122681856155396,-0.5840315222740173,-0.33189690113067627,0.5312156081199646,-0.6416649222373962,-0.45634400844573975,-0.3490593731403351,0.0053568328730762005,0.6665657162666321,1.6999714374542236,0.5625161528587341,0.6810522675514221,0.08769091963768005,-0.6801705956459045,0.01704178750514984,-0.47003626823425293,-0.6438286304473877,-2.0356991291046143,-1.3982715606689453,2.1867451667785645,0.6243026852607727,-0.6139196157455444,-0.4418320059776306,0.45796501636505127,-0.2853664755821228,1.2395031452178955,0.0545017272233963,0.2208908498287201,-0.45826485753059387,-0.06615154445171356,-0.07759199291467667,0.4342481195926666,0.18514402210712433,1.5104390382766724,-0.5411720275878906,0.2011246681213379,0.6367189884185791,0.08272179961204529,-0.13061851263046265,-0.16908647119998932,-0.40709415078163147,0.8061575293540955,0.4257389307022095,-0.49953705072402954,0.29140833020210266,-1.1698232889175415,0.3718096911907196,-0.049765247851610184,0.13578933477401733,0.3526480197906494,0.8088482022285461,0.4839358329772949,-1.420081615447998,1.4109536409378052,1.1684706211090088,-0.32954108715057373,-0.20912012457847595,-0.5002438426017761,-0.8472726941108704,0.32391610741615295,0.23209801316261292,-0.07018360495567322,-0.10125194489955902,0.23444309830665588,0.04677852988243103,-0.21470245718955994,-0.14375095069408417,1.8250337839126587,-0.2684546411037445,-0.5000629425048828,0.185143381357193,-0.12486711144447327,0.033064600080251694,1.7071216106414795,-0.23440231382846832,0.31867045164108276,0.2359541654586792,0.4805198013782501,0.1914309561252594,-0.6443203091621399,0.2594369351863861,0.22875209152698517,-0.19954729080200195,0.1105053722858429,-0.37144091725349426,-1.5479099750518799,-0.2955087423324585,-0.3179379105567932,0.7564023733139038,0.6284282207489014,0.7242226600646973,0.5745305418968201,-0.07543244957923889,0.0869787260890007,0.26750192046165466,-0.8184552192687988,-0.7004629373550415,-0.34016650915145874,-0.13507726788520813,0.511987030506134,0.42676109075546265,-0.6588912010192871,-0.2915346622467041,0.6602796912193298,-0.6294047236442566,0.7428551316261292,-0.5616075992584229,0.2198544293642044,0.943662166595459,0.5982998609542847,0.9444169998168945,0.2582989037036896,-0.06290735304355621,-0.37487027049064636,0.1753803789615631,-0.9790412783622742,-0.7146609425544739,-0.37415310740470886,-0.2025100141763687,0.547593355178833,0.9231686592102051,-0.9452367424964905,-0.35015353560447693,0.7200615406036377,-0.9603455066680908,0.6167109608650208,-1.1724249124526978,0.07294076681137085,0.7885748147964478,0.6867946982383728,0.7657381892204285,0.5667316913604736,-0.11292470991611481,0.12238595634698868,-0.002205466153100133,-0.7596035003662109,-0.7915769815444946,-0.6835047602653503,-0.6440668702125549,0.7447171807289124,0.7340284585952759,-0.7530225515365601,-0.6542603373527527,0.7509636282920837,-0.7721808552742004,-0.09004535526037216,-0.8975638151168823,0.5745744705200195,-0.32335758209228516,-0.06832028180360794,-0.4326014816761017,-1.2818747758865356,-0.5209763050079346,1.462179183959961,0.5110732913017273,0.4254418611526489,0.7352923154830933,-0.5521494150161743,-0.7942031025886536,0.923406183719635,1.8382391929626465,0.1516132801771164,0.08375474065542221,-1.0555022954940796,1.324136734008789,-0.5888844132423401,0.695668637752533,0.35851290822029114,0.6058079600334167,0.47861915826797485,0.5972633361816406,0.4630979299545288,-0.04120301455259323,0.31997042894363403,0.11907796561717987,-0.6345831751823425,-0.6193199157714844,-0.34937193989753723,-0.2700292766094208,0.4580761790275574,0.24547436833381653,-0.5572081804275513,-0.2636130154132843,0.5250786542892456,-0.6072347164154053,0.5363196134567261,-0.4034845232963562,-0.061399657279253006,-0.5051241517066956,-1.4378650188446045,-0.5123640298843384,-1.2502952814102173,0.4276699721813202,1.4161471128463745,-0.34207823872566223,0.5520386099815369,0.35343262553215027,0.7749415040016174,0.21333780884742737,-1.841535210609436,-1.2921422719955444,0.617962658405304,-1.236764907836914,-0.5064392685890198,0.23863649368286133,-1.066975712776184,0.7212167978286743,0.022648805752396584,0.031945791095495224,-0.38946500420570374,0.3471773564815521,-0.22184030711650848,-0.7820942997932434,2.634279251098633,0.42840054631233215,-0.11314855515956879,-0.2667109966278076,0.3532699644565582,0.18521754443645477,-0.31491807103157043,0.5667676329612732,-0.18928885459899902,-0.44239985942840576,0.787413477897644,-0.3524656891822815,-1.5888736248016357,-0.5797977447509766,0.8515734076499939,0.6506972908973694,0.645824670791626,0.6272467970848083,-0.5065764784812927,-0.6891632080078125,0.15365257859230042,0.5177275538444519,-0.6364060044288635,-0.4788719713687897,-0.0015283635584637523,-0.1715513914823532,0.4116564393043518,0.455504834651947,-0.6672977805137634,-0.2259916216135025,0.3687390387058258,-0.7257217764854431,0.2470753788948059,-0.46686267852783203,0.5557170510292053,0.7034232020378113,0.6909849047660828,0.8544366955757141,0.43379712104797363,-0.2207978516817093,0.25530189275741577,0.17882674932479858,-0.7568190097808838,-0.74102783203125,-0.5042358636856079,-0.4881947636604309,0.7619747519493103,0.8772875666618347,-0.8174282312393188,-0.6537957191467285,0.6233540773391724,-0.650559663772583,0.15710462629795074,-0.8555909991264343,0.363450825214386,-0.035711728036403656,0.18266096711158752,0.5615505576133728,-0.043472856283187866,-0.11928718537092209,0.9203932285308838,0.046444278210401535,-0.09148309379816055,-0.13505814969539642,-0.05088633671402931,-0.29246145486831665,0.0877755731344223,0.2650327980518341,0.05900229886174202,-0.21099188923835754,0.4207753837108612,0.2569792866706848,-0.5756436586380005,0.1532626748085022,0.16913792490959167,0.7416858077049255,0.6850786805152893,0.7647531032562256,0.6817182302474976,0.11749201267957687,0.7211318612098694,-0.11561846733093262,-0.8157880902290344,-0.6470191478729248,-0.5876397490501404,-0.0556388720870018,0.5964938402175903,0.6675224900245667,-0.7820730805397034,-0.33986783027648926,0.6444445848464966,-0.8048531413078308,-0.249513179063797,-0.9272462129592896,-0.1075504720211029]},"inputHidden":{"rows":20,"columns":20,"weights":[-1.3644591569900513,-1.1053452491760254,-0.09840434789657593,-1.0460307598114014,0.4334074854850769,0.007846119813621044,-1.0249335765838623,-1.2917762994766235,-0.7826849222183228,0.3665877878665924,1.3990765810012817,-0.4764899015426636,0.7091885805130005,-0.7492974996566772,1.1364637613296509,0.7118626832962036,0.181456059217453,0.39927157759666443,-0.6874679327011108,1.550747275352478,0.058139290660619736,-0.5728287696838379,0.41165396571159363,0.06126978620886803,0.21781884133815765,-0.40872958302497864,-0.007216817233711481,-0.03915022686123848,-0.10834309458732605,0.05268546938896179,-0.1444459706544876,0.40971803665161133,0.5214290022850037,0.2476767897605896,0.057476870715618134,-0.047904495149850845,-0.3780398964881897,-0.3044188618659973,-0.08150561898946762,0.6021218299865723,0.139773428440094,-0.5350240468978882,0.6715702414512634,0.3890644609928131,1.1221932172775269,-0.27884650230407715,0.060403745621442795,0.03717050328850746,-0.015800995752215385,-0.13087451457977295,-0.5795825123786926,0.41195008158683777,-0.026841234415769577,-0.017540568485856056,0.04974992200732231,0.051028136163949966,-0.924868106842041,-0.13249097764492035,-0.05614065006375313,0.904471755027771,0.17182055115699768,-0.05205267295241356,0.2942257821559906,-0.21606656908988953,-0.40005066990852356,-0.058063119649887085,0.07525750994682312,0.22746507823467255,0.1720421016216278,-0.3100682199001312,0.11584401875734329,0.4696652293205261,-0.048324406147003174,0.09685338288545609,-0.08725019544363022,-0.09790351241827011,0.17391756176948547,-0.2856312692165375,0.06637228280305862,-0.22155623137950897,0.21783331036567688,0.42045265436172485,0.12893959879875183,0.867006778717041,0.8312875628471375,0.5086740255355835,0.1159367635846138,0.15280935168266296,0.0173055287450552,-0.10348425805568695,-0.4821406602859497,0.5952533483505249,-0.05021752789616585,-0.033980194479227066,-0.008091078139841557,-0.07829305529594421,-1.1400864124298096,0.4873115122318268,0.12541572749614716,-0.15810158848762512,0.13979710638523102,-0.9964625239372253,1.0018800497055054,-0.91724693775177,-0.987479567527771,-1.1776400804519653,0.0027106991037726402,0.09702320396900177,-0.1453845351934433,-0.5026111602783203,0.7562575936317444,-0.035645171999931335,-0.10832428187131882,0.20696622133255005,0.061256423592567444,-0.045353248715400696,0.8956436514854431,-1.197807788848877,0.09683815389871597,1.6228046417236328,-1.0416899919509888,-1.3219667673110962,0.17635515332221985,0.0032931147143244743,1.416733741760254,0.9066880941390991,-0.703062891960144,-0.6390480995178223,-0.8773688673973083,1.270035743713379,0.38613468408584595,0.8075680732727051,0.9314988851547241,0.008558381348848343,0.9489607810974121,0.8210572600364685,-1.011539340019226,0.5697665214538574,-0.8322592377662659,-1.0511658191680908,-1.2349144220352173,-0.7227227687835693,0.6124617457389832,-1.6396903991699219,-0.30968138575553894,-0.17180830240249634,0.9026179313659668,-0.4878289997577667,-2.0775034427642822,-0.8044530153274536,2.137312889099121,-1.1963646411895752,0.20526160299777985,-0.5557061433792114,1.2640674114227295,0.9836805462837219,0.521806538105011,0.14982274174690247,-0.7929562926292419,0.5123520493507385,-0.9010694026947021,0.47923505306243896,-0.6694092750549316,1.059904932975769,1.2393174171447754,1.1862167119979858,-0.843633770942688,-0.6791195273399353,-0.8213560581207275,0.14191526174545288,-0.39060673117637634,0.914478600025177,0.7377575635910034,-0.36719071865081787,0.8498138785362244,0.867476224899292,-1.015295147895813,0.811120331287384,-0.8817688822746277,-0.2579018175601959,0.29698264598846436,-0.47899582982063293,0.1495138257741928,0.5254042744636536,0.23942647874355316,-0.3424139618873596,0.2258611023426056,0.16571924090385437,1.4130436182022095,-0.013340869918465614,-0.583240270614624,0.4605637788772583,-0.352446585893631,-0.12029019743204117,-0.41461649537086487,-0.22153030335903168,-0.30186372995376587,-0.29808348417282104,0.10469354689121246,0.6943578124046326,0.1235148161649704,-0.5812370777130127,0.47436246275901794,-0.18340985476970673,-0.26733776926994324,-0.13508032262325287,0.0585905946791172,0.10809363424777985,-0.03245077654719353,-0.06802916526794434,0.25028613209724426,0.32640063762664795,-0.16480082273483276,0.23423975706100464,-0.24544018507003784,-0.038343146443367004,0.06512181460857391,-0.3813398778438568,0.10199462622404099,0.25857165455818176,0.03761249780654907,-0.7782158851623535,0.5413980484008789,0.35621318221092224,0.8796558380126953,-0.42593759298324585,-0.03461448475718498,-0.21178139746189117,-0.10762239247560501,0.36892643570899963,-0.5169757604598999,0.5193624496459961,0.5484712719917297,-0.3120926022529602,0.25281766057014465,0.048288434743881226,-0.915730357170105,-0.2697761654853821,-0.1597754955291748,0.6638308763504028,0.023773081600666046,-0.4111095368862152,-0.07820454239845276,-0.7662104964256287,0.5346521735191345,0.2395380288362503,0.04674964398145676,0.22840802371501923,-0.22995570302009583,-0.22037050127983093,0.9783837795257568,-0.8219600319862366,-0.15472745895385742,-1.1425985097885132,0.06511638313531876,0.23969364166259766,-0.2849405109882355,0.49778467416763306,0.12143971771001816,2.1389479637145996,0.133888378739357,-0.12230832129716873,0.4457069933414459,0.30012020468711853,0.5696626305580139,0.13096892833709717,0.8346707820892334,0.5556399822235107,0.5599061250686646,-0.09309125691652298,-0.2303980141878128,0.7358353734016418,-0.48352423310279846,0.05460502952337265,-0.43243923783302307,-0.6465557813644409,-0.39853543043136597,0.09692676365375519,0.3660804331302643,0.7335228323936462,-0.48623672127723694,1.1905992031097412,-0.5331802368164062,0.5573046803474426,0.539241373538971,0.8540971875190735,-0.12208332866430283,0.34926074743270874,-0.5867867469787598,0.3624853789806366,0.25911441445350647,0.47149792313575745,0.10090919584035873,-1.6751142740249634,0.06757014989852905,-0.21895132958889008,-0.5801151990890503,0.6593711972236633,-0.03477063030004501,-1.6519056558609009,-1.4815174341201782,0.8416094183921814,0.022478636354207993,-1.3576267957687378,0.4454665780067444,0.4370430111885071,0.9526881575584412,0.3151101768016815,-2.9818928241729736,-1.3226213455200195,1.671965479850769,-3.046313762664795,-0.7594470977783203,-0.5905138850212097,2.1333279609680176,1.2642157077789307,-0.07432465255260468,0.6498205065727234,-1.4064245223999023,0.16794447600841522,0.13532552123069763,0.585641086101532,0.062194060534238815,0.7447831034660339,0.305957555770874,0.20165812969207764,0.20160147547721863,0.27721720933914185,0.22289951145648956,-0.18254214525222778,-0.455828994512558,0.6445026397705078,-0.16664189100265503,0.06173425540328026,-0.13398069143295288,-0.14993204176425934,-0.4429536461830139,-0.009175830520689487,0.20923969149589539,-0.16414359211921692,0.009628967382013798,-0.33296486735343933,0.07902407646179199,0.3475864827632904,0.08695441484451294,-0.24798037111759186,-0.11167225241661072,-0.026939893141388893,-0.10533858090639114,-0.3225489854812622,-0.41541942954063416,0.48310399055480957,0.29356151819229126,0.11063876003026962,0.07044006139039993,0.050290826708078384,-0.2023524045944214,-0.06995193660259247,-0.025301266461610794,-0.021379664540290833,-0.8792406320571899,-0.36477115750312805,0.7515174150466919,